{"learner":{"attributes":{"scikit_learn":"{\"_estimator_type\": \"classifier\"}"},"feature_names":[],"feature_types":[],"gradient_booster":{"model":{"cats":{"enc":[],"feature_segments":[],"sorted_idx":[]},"gbtree_model_param":{"num_parallel_tree":"1","num_trees":"200"},"iteration_indptr":[0,1,2,3,4,5,6,7,8,9,10,11,12,13,14,15,16,17,18,19,20,21,22,23,24,25,26,27,28,29,30,31,32,33,34,35,36,37,38,39,40,41,42,43,44,45,46,47,48,49,50,51,52,53,54,55,56,57,58,59,60,61,62,63,64,65,66,67,68,69,70,71,72,73,74,75,76,77,78,79,80,81,82,83,84,85,86,87,88,89,90,91,92,93,94,95,96,97,98,99,100,101,102,103,104,105,106,107,108,109,110,111,112,113,114,115,116,117,118,119,120,121,122,123,124,125,126,127,128,129,130,131,132,133,134,135,136,137,138,139,140,141,142,143,144,145,146,147,148,149,150,151,152,153,154,155,156,157,158,159,160,161,162,163,164,165,166,167,168,169,170,171,172,173,174,175,176,177,178,179,180,181,182,183,184,185,186,187,188,189,190,191,192,193,194,195,196,197,198,199,200],"tree_info":[0,0,0,0,0,0,0,0,0,0,0,0,0,0,0,0,0,0,0,0,0,0,0,0,0,0,0,0,0,0,0,0,0,0,0,0,0,0,0,0,0,0,0,0,0,0,0,0,0,0,0,0,0,0,0,0,0,0,0,0,0,0,0,0,0,0,0,0,0,0,0,0,0,0,0,0,0,0,0,0,0,0,0,0,0,0,0,0,0,0,0,0,0,0,0,0,0,0,0,0,0,0,0,0,0,0,0,0,0,0,0,0,0,0,0,0,0,0,0,0,0,0,0,0,0,0,0,0,0,0,0,0,0,0,0,0,0,0,0,0,0,0,0,0,0,0,0,0,0,0,0,0,0,0,0,0,0,0,0,0,0,0,0,0,0,0,0,0,0,0,0,0,0,0,0,0,0,0,0,0,0,0,0,0,0,0,0,0,0,0,0,0,0,0,0,0,0,0,0,0],"trees":[{"base_weights":[2.2393147E-8,-6.0807127E-1,8.7078935E-1,-8.957741E-1,3.4697783E-1,4.8292747E-1,1.6757622E0,-4.8099626E-2,1.4284528E-2,-3.7731208E-2,3.805972E-2,8.803273E-3,9.770732E-2,9.873735E-2,-1.4911394E-2],"categories":[],"categories_nodes":[],"categories_segments":[],"categories_sizes":[],"default_left":[0,0,0,0,0,0,0,0,0,0,0,0,0,0,0],"id":0,"left_children":[1,3,5,7,9,11,13,-1,-1,-1,-1,-1,-1,-1,-1],"loss_changes":[3.858315E1,1.2100056E1,8.545128E0,2.8763008E0,5.4357133E0,9.418245E0,6.099718E0,0E0,0E0,0E0,0E0,0E0,0E0,0E0,0E0],"parents":[2147483647,0,0,1,1,2,2,3,3,4,4,5,5,6,6],"right_children":[2,4,6,8,10,12,14,-1,-1,-1,-1,-1,-1,-1,-1],"split_conditions":[1E0,8.560877E-2,4.1666666E-1,1E0,1.6666667E-1,1.9732526E-1,9.749892E-2,-4.8099626E-2,1.4284528E-2,-3.7731208E-2,3.805972E-2,8.803273E-3,9.770732E-2,9.873735E-2,-1.4911394E-2],"split_indices":[8,2,4,25,4,2,1,0,0,0,0,0,0,0,0],"split_type":[0,0,0,0,0,0,0,0,0,0,0,0,0,0,0],"sum_hessian":[7.086687E1,4.1905796E1,2.8961075E1,3.2252106E1,9.653691E0,2.0623795E1,8.337278E0,3.071629E1,1.5358145E0,2.4134228E0,7.2402687E0,1.799097E1,2.632825E0,7.2402687E0,1.0970104E0],"tree_param":{"num_deleted":"0","num_feature":"38","num_nodes":"15","size_leaf_vector":"1"}},{"base_weights":[1.745012E-3,-5.8504266E-1,8.2279485E-1,-8.6592895E-1,3.2751676E-1,3.951022E-1,1.2835728E0,-4.6565242E-2,1.3809358E-2,-3.862446E-2,2.6642859E-2,3.6400747E-2,-1.4855842E-2,7.741113E-2,9.088844E-3],"categories":[],"categories_nodes":[],"categories_segments":[],"categories_sizes":[],"default_left":[0,0,0,0,0,0,0,0,0,0,0,0,0,0,0],"id":1,"left_children":[1,3,5,7,9,11,13,-1,-1,-1,-1,-1,-1,-1,-1],"loss_changes":[3.5064884E1,1.1164096E1,5.47093E0,2.7012043E0,2.8321128E0,4.1746716E0,3.846838E0,0E0,0E0,0E0,0E0,0E0,0E0,0E0,0E0],"parents":[2147483647,0,0,1,1,2,2,3,3,4,4,5,5,6,6],"right_children":[2,4,6,8,10,12,14,-1,-1,-1,-1,-1,-1,-1,-1],"split_conditions":[1E0,8.560877E-2,4.91095E-2,1E0,3.989247E-2,1E0,1E0,-4.6565242E-2,1.3809358E-2,-3.862446E-2,2.6642859E-2,3.6400747E-2,-1.4855842E-2,7.741113E-2,9.088844E-3],"split_indices":[8,2,1,25,1,28,27,0,0,0,0,0,0,0,0],"split_type":[0,0,0,0,0,0,0,0,0,0,0,0,0,0,0],"sum_hessian":[7.078251E1,4.144795E1,2.9334562E1,3.1731937E1,9.716009E0,1.6176786E1,1.3157775E1,3.0188498E1,1.5434395E0,1.0939169E0,8.622092E0,1.0888437E1,5.288349E0,1.0282703E1,2.8750713E0],"tree_param":{"num_deleted":"0","num_feature":"38","num_nodes":"15","size_leaf_vector":"1"}},{"base_weights":[2.180964E-3,-5.632886E-1,7.7565104E-1,-8.373965E-1,3.0812064E-1,4.22423E-1,1.4971385E0,-4.509845E-2,1.3351184E-2,-3.6991518E-2,3.473252E-2,6.898414E-3,8.79394E-2,8.826577E-2,-1.5422419E-2],"categories":[],"categories_nodes":[],"categories_segments":[],"categories_sizes":[],"default_left":[0,0,0,0,0,0,0,0,0,0,0,0,0,0,0],"id":2,"left_children":[1,3,5,7,9,11,13,-1,-1,-1,-1,-1,-1,-1,-1],"loss_changes":[3.1787584E1,1.0286935E1,7.189617E0,2.537817E0,4.879657E0,8.119562E0,5.23888E0,0E0,0E0,0E0,0E0,0E0,0E0,0E0,0E0],"parents":[2147483647,0,0,1,1,2,2,3,3,4,4,5,5,6,6],"right_children":[2,4,6,8,10,12,14,-1,-1,-1,-1,-1,-1,-1,-1],"split_conditions":[1E0,8.560877E-2,4.1666666E-1,1E0,1.6666667E-1,1.9732526E-1,9.749892E-2,-4.509845E-2,1.3351184E-2,-3.6991518E-2,3.473252E-2,6.898414E-3,8.79394E-2,8.826577E-2,-1.5422419E-2],"split_indices":[8,2,4,25,4,2,1,0,0,0,0,0,0,0,0],"split_type":[0,0,0,0,0,0,0,0,0,0,0,0,0,0,0],"sum_hessian":[7.067935E1,4.098657E1,2.9692781E1,3.120869E1,9.777878E0,2.0998005E1,8.694777E0,2.9657976E1,1.5507143E0,2.3884187E0,7.3894596E0,1.8222466E1,2.7755396E0,7.589797E0,1.1049794E0],"tree_param":{"num_deleted":"0","num_feature":"38","num_nodes":"15","size_leaf_vector":"1"}},{"base_weights":[3.5983312E-3,-3.9502653E-1,7.968049E-1,-5.965902E-1,7.6366967E-1,9.059866E-1,-2.5092034E-2,-1.54094845E-2,-4.8363157E-2,5.5928107E-2,-3.683644E-2,3.402404E-2,8.361701E-2],"categories":[],"categories_nodes":[],"categories_segments":[],"categories_sizes":[],"default_left":[0,0,0,0,0,0,0,0,0,0,0,0,0],"id":3,"left_children":[1,3,5,7,9,11,-1,-1,-1,-1,-1,-1,-1],"loss_changes":[2.291633E1,1.1722433E1,3.891488E0,4.154851E0,4.8640103E0,2.7876797E0,0E0,0E0,0E0,0E0,0E0,0E0,0E0],"parents":[2147483647,0,0,1,1,2,2,3,3,4,4,5,5],"right_children":[2,4,6,8,10,12,-1,-1,-1,-1,-1,-1,-1],"split_conditions":[4.9493544E-2,3.6666667E-1,3.6138615E-1,1E0,1E0,1E0,-2.5092034E-2,-1.54094845E-2,-4.8363157E-2,5.5928107E-2,-3.683644E-2,3.402404E-2,8.361701E-2],"split_indices":[1,4,3,28,7,10,0,0,0,0,0,0,0],"split_type":[0,0,0,0,0,0,0,0,0,0,0,0,0],"sum_hessian":[7.048056E1,4.724143E1,2.3239128E1,4.0654415E1,6.587013E0,2.1715767E1,1.5233611E0,2.3894688E1,1.675973E1,5.5328145E0,1.0541985E0,1.8237253E1,3.4785144E0],"tree_param":{"num_deleted":"0","num_feature":"38","num_nodes":"13","size_leaf_vector":"1"}},{"base_weights":[3.8468605E-3,-5.3224266E-1,7.154145E-1,-7.9480374E-1,2.7451876E-1,3.992495E-1,1.3443776E0,-4.293796E-2,1.3184353E-2,-3.6090095E-2,3.1744506E-2,6.695952E-3,8.075159E-2,7.962133E-2,-1.634057E-2],"categories":[],"categories_nodes":[],"categories_segments":[],"categories_sizes":[],"default_left":[0,0,0,0,0,0,0,0,0,0,0,0,0,0,0],"id":4,"left_children":[1,3,5,7,9,11,13,-1,-1,-1,-1,-1,-1,-1,-1],"loss_changes":[2.7591928E1,8.957319E0,5.6431E0,2.3509674E0,4.3623075E0,6.91395E0,4.654785E0,0E0,0E0,0E0,0E0,0E0,0E0,0E0,0E0],"parents":[2147483647,0,0,1,1,2,2,3,3,4,4,5,5,6,6],"right_children":[2,4,6,8,10,12,14,-1,-1,-1,-1,-1,-1,-1,-1],"split_conditions":[1E0,8.560877E-2,4.1666666E-1,1E0,1.6666667E-1,1.9732526E-1,9.749892E-2,-4.293796E-2,1.3184353E-2,-3.6090095E-2,3.1744506E-2,6.695952E-3,8.075159E-2,7.962133E-2,-1.634057E-2],"split_indices":[8,2,4,25,4,2,1,0,0,0,0,0,0,0,0],"split_type":[0,0,0,0,0,0,0,0,0,0,0,0,0,0,0],"sum_hessian":[7.033347E1,4.025653E1,3.0076942E1,3.0383139E1,9.873391E0,2.1103487E1,8.973455E0,2.8829891E1,1.5532478E0,2.3562145E0,7.517177E0,1.8234228E1,2.8692594E0,7.854734E0,1.1187215E0],"tree_param":{"num_deleted":"0","num_feature":"38","num_nodes":"15","size_leaf_vector":"1"}},{"base_weights":[5.0267535E-3,-5.1275885E-1,6.798062E-1,-7.690832E-1,2.5935495E-1,3.8169932E-1,1.2677906E0,-4.161505E-2,1.2748393E-2,-3.5172638E-2,3.0091567E-2,6.364909E-3,7.685891E-2,7.4998155E-2,-1.5955098E-2],"categories":[],"categories_nodes":[],"categories_segments":[],"categories_sizes":[],"default_left":[0,0,0,0,0,0,0,0,0,0,0,0,0,0,0],"id":5,"left_children":[1,3,5,7,9,11,13,-1,-1,-1,-1,-1,-1,-1,-1],"loss_changes":[2.5174742E1,8.269268E0,4.9990377E0,2.2103195E0,4.020938E0,6.32652E0,4.1972237E0,0E0,0E0,0E0,0E0,0E0,0E0,0E0,0E0],"parents":[2147483647,0,0,1,1,2,2,3,3,4,4,5,5,6,6],"right_children":[2,4,6,8,10,12,14,-1,-1,-1,-1,-1,-1,-1,-1],"split_conditions":[1E0,8.560877E-2,4.1666666E-1,1E0,1.6666667E-1,1.9732526E-1,9.749892E-2,-4.161505E-2,1.2748393E-2,-3.5172638E-2,3.0091567E-2,6.364909E-3,7.685891E-2,7.4998155E-2,-1.5955098E-2],"split_indices":[8,2,4,25,4,2,1,0,0,0,0,0,0,0,0],"split_type":[0,0,0,0,0,0,0,0,0,0,0,0,0,0,0],"sum_hessian":[7.005552E1,3.9774807E1,3.0280714E1,2.986442E1,9.910386E0,2.118774E1,9.092973E0,2.8304352E1,1.5600666E0,2.3237064E0,7.58668E0,1.8274437E1,2.9133036E0,7.980199E0,1.1127741E0],"tree_param":{"num_deleted":"0","num_feature":"38","num_nodes":"15","size_leaf_vector":"1"}},{"base_weights":[6.0787085E-3,-4.9410605E-1,6.468178E-1,-7.4429744E-1,2.4509099E-1,3.651165E-1,1.1990077E0,-4.033949E-2,1.2327815E-2,-3.428655E-2,2.8546501E-2,6.05094E-3,7.334574E-2,7.087641E-2,-1.5579573E-2],"categories":[],"categories_nodes":[],"categories_segments":[],"categories_sizes":[],"default_left":[0,0,0,0,0,0,0,0,0,0,0,0,0,0,0],"id":6,"left_children":[1,3,5,7,9,11,13,-1,-1,-1,-1,-1,-1,-1,-1],"loss_changes":[2.298966E1,7.6340666E0,4.4534216E0,2.07827E0,3.709929E0,5.809112E0,3.8035326E0,0E0,0E0,0E0,0E0,0E0,0E0,0E0,0E0],"parents":[2147483647,0,0,1,1,2,2,3,3,4,4,5,5,6,6],"right_children":[2,4,6,8,10,12,14,-1,-1,-1,-1,-1,-1,-1,-1],"split_conditions":[1E0,8.560877E-2,4.1666666E-1,1E0,1.6666667E-1,1.9732526E-1,9.749892E-2,-4.033949E-2,1.2327815E-2,-3.428655E-2,2.8546501E-2,6.05094E-3,7.334574E-2,7.087641E-2,-1.5579573E-2],"split_indices":[8,2,4,25,4,2,1,0,0,0,0,0,0,0,0],"split_type":[0,0,0,0,0,0,0,0,0,0,0,0,0,0,0],"sum_hessian":[6.9736084E1,3.929208E1,3.0444006E1,2.9350948E1,9.941131E0,2.1259583E1,9.184423E0,2.7784374E1,1.566573E0,2.2912436E0,7.6498876E0,1.8312403E1,2.9471803E0,8.077553E0,1.1068711E0],"tree_param":{"num_deleted":"0","num_feature":"38","num_nodes":"15","size_leaf_vector":"1"}},{"base_weights":[7.017504E-3,-4.7622037E-1,6.161491E-1,-7.959459E-1,6.508905E-2,3.4943005E-1,1.136784E0,-4.228976E-2,7.150173E-3,-3.278401E-2,1.6760448E-2,-5.322841E-3,3.953211E-2,6.717198E-2,-1.5213671E-2],"categories":[],"categories_nodes":[],"categories_segments":[],"categories_sizes":[],"default_left":[0,0,0,0,0,0,0,0,0,0,0,0,0,0,0],"id":7,"left_children":[1,3,5,7,9,11,13,-1,-1,-1,-1,-1,-1,-1,-1],"loss_changes":[2.1010668E1,6.941846E0,3.986843E0,1.2959414E0,3.277881E0,4.573695E0,3.4615583E0,0E0,0E0,0E0,0E0,0E0,0E0,0E0,0E0],"parents":[2147483647,0,0,1,1,2,2,3,3,4,4,5,5,6,6],"right_children":[2,4,6,8,10,12,14,-1,-1,-1,-1,-1,-1,-1,-1],"split_conditions":[1E0,3.7972253E-2,4.1666666E-1,1E0,1.6666667E-1,3.893236E-2,9.749892E-2,-4.228976E-2,7.150173E-3,-3.278401E-2,1.6760448E-2,-5.322841E-3,3.953211E-2,6.717198E-2,-1.5213671E-2],"split_indices":[8,1,4,25,4,1,1,0,0,0,0,0,0,0,0],"split_type":[0,0,0,0,0,0,0,0,0,0,0,0,0,0,0],"sum_hessian":[6.938173E1,3.88106E1,3.0571127E1,2.4103443E1,1.4707156E1,2.1320093E1,9.251034E0,2.2982502E1,1.1209412E0,3.6201177E0,1.1087038E1,1.0858823E1,1.046127E1,8.150016E0,1.1010174E0],"tree_param":{"num_deleted":"0","num_feature":"38","num_nodes":"15","size_leaf_vector":"1"}},{"base_weights":[6.9850963E-3,-4.5918262E-1,5.8567685E-1,-6.999083E-1,2.2839057E-1,3.322435E-1,1.0801247E0,-3.8054403E-2,1.1596456E-2,-3.2556664E-2,2.6346374E-2,5.1148175E-3,6.850194E-2,6.381846E-2,-1.4857098E-2],"categories":[],"categories_nodes":[],"categories_segments":[],"categories_sizes":[],"default_left":[0,0,0,0,0,0,0,0,0,0,0,0,0,0,0],"id":8,"left_children":[1,3,5,7,9,11,13,-1,-1,-1,-1,-1,-1,-1,-1],"loss_changes":[1.9166815E1,6.6743956E0,3.6126509E0,1.8525076E0,3.220996E0,5.204844E0,3.1620026E0,0E0,0E0,0E0,0E0,0E0,0E0,0E0,0E0],"parents":[2147483647,0,0,1,1,2,2,3,3,4,4,5,5,6,6],"right_children":[2,4,6,8,10,12,14,-1,-1,-1,-1,-1,-1,-1,-1],"split_conditions":[1E0,8.560877E-2,4.1666666E-1,1E0,1.6666667E-1,1.9732526E-1,1.9732526E-1,-3.8054403E-2,1.1596456E-2,-3.2556664E-2,2.6346374E-2,5.1148175E-3,6.850194E-2,6.381846E-2,-1.4857098E-2],"split_indices":[8,2,4,25,4,2,2,0,0,0,0,0,0,0,0],"split_type":[0,0,0,0,0,0,0,0,0,0,0,0,0,0,0],"sum_hessian":[6.90525E1,3.835886E1,3.0693634E1,2.8398384E1,9.960477E0,2.1397907E1,9.295727E0,2.6820713E1,1.5776725E0,2.2248206E0,7.7356563E0,1.8415995E1,2.9819121E0,8.200509E0,1.0952182E0],"tree_param":{"num_deleted":"0","num_feature":"38","num_nodes":"15","size_leaf_vector":"1"}},{"base_weights":[7.789133E-3,-4.426352E-1,5.5902463E-1,-6.77426E-1,2.1594849E-1,3.1830192E-1,1.0282263E0,-3.6894407E-2,1.1216132E-2,-3.175488E-2,2.5034184E-2,4.8646196E-3,6.573262E-2,6.07627E-2,-1.4509561E-2],"categories":[],"categories_nodes":[],"categories_segments":[],"categories_sizes":[],"default_left":[0,0,0,0,0,0,0,0,0,0,0,0,0,0,0],"id":9,"left_children":[1,3,5,7,9,11,13,-1,-1,-1,-1,-1,-1,-1,-1],"loss_changes":[1.7540161E1,6.159291E0,3.2600107E0,1.7416563E0,2.9782465E0,4.813363E0,2.8976498E0,0E0,0E0,0E0,0E0,0E0,0E0,0E0,0E0],"parents":[2147483647,0,0,1,1,2,2,3,3,4,4,5,5,6,6],"right_children":[2,4,6,8,10,12,14,-1,-1,-1,-1,-1,-1,-1,-1],"split_conditions":[1E0,8.560877E-2,4.1666666E-1,1E0,1.6666667E-1,1.9732526E-1,1.9732526E-1,-3.6894407E-2,1.1216132E-2,-3.175488E-2,2.5034184E-2,4.8646196E-3,6.573262E-2,6.07627E-2,-1.4509561E-2],"split_indices":[8,2,4,25,4,2,2,0,0,0,0,0,0,0,0],"split_type":[0,0,0,0,0,0,0,0,0,0,0,0,0,0,0],"sum_hessian":[6.864729E1,3.788654E1,3.0760754E1,2.7908358E1,9.978182E0,2.1439608E1,9.321145E0,2.6324984E1,1.5833725E0,2.1930077E0,7.7851744E0,1.8445658E1,2.99395E0,8.2316675E0,1.0894779E0],"tree_param":{"num_deleted":"0","num_feature":"38","num_nodes":"15","size_leaf_vector":"1"}},{"base_weights":[8.508311E-3,-4.2671221E-1,5.340277E-1,-7.311364E-1,6.642234E-2,2.2397172E-1,8.61805E-1,-2.5917754E-2,-5.3233664E-2,1.1827707E-2,-4.5657966E-2,-6.4458787E-3,4.1655686E-2,6.817469E-2,1.9152133E-2],"categories":[],"categories_nodes":[],"categories_segments":[],"categories_sizes":[],"default_left":[0,0,0,0,0,0,0,0,0,0,0,0,0,0,0],"id":10,"left_children":[1,3,5,7,9,11,13,-1,-1,-1,-1,-1,-1,-1,-1],"loss_changes":[1.6060226E1,5.81628E0,3.0390291E0,1.1399612E0,2.812794E0,3.910922E0,3.1065645E0,0E0,0E0,0E0,0E0,0E0,0E0,0E0,0E0],"parents":[2147483647,0,0,1,1,2,2,3,3,4,4,5,5,6,6],"right_children":[2,4,6,8,10,12,14,-1,-1,-1,-1,-1,-1,-1,-1],"split_conditions":[1E0,3.7972253E-2,4.91095E-2,4.5266706E-2,3.1666666E-1,3.6666667E-1,7.5416446E-2,-2.5917754E-2,-5.3233664E-2,1.1827707E-2,-4.5657966E-2,-6.4458787E-3,4.1655686E-2,6.817469E-2,1.9152133E-2],"split_indices":[8,1,1,2,4,4,1,0,0,0,0,0,0,0,0],"split_type":[0,0,0,0,0,0,0,0,0,0,0,0,0,0,0],"sum_hessian":[6.8222496E1,3.742017E1,3.0802328E1,2.2838665E1,1.4581506E1,1.6694103E1,1.4108225E1,1.5502741E1,7.335925E0,1.3070042E1,1.5114639E0,1.1069602E1,5.624501E0,5.9867907E0,8.121434E0],"tree_param":{"num_deleted":"0","num_feature":"38","num_nodes":"15","size_leaf_vector":"1"}},{"base_weights":[8.09201E-3,-3.0842528E-1,5.800756E-1,2.6809229E-2,-8.4197026E-1,1.1669488E0,3.335388E-1,-5.5139113E-2,1.4215979E-2,-1.836337E-2,-6.1540026E-2,6.668468E-2,7.3439376E-3,-5.416444E-3,3.4915272E-2],"categories":[],"categories_nodes":[],"categories_segments":[],"categories_sizes":[],"default_left":[0,0,0,0,0,0,0,0,0,0,0,0,0,0,0],"id":11,"left_children":[1,3,5,7,9,11,13,-1,-1,-1,-1,-1,-1,-1,-1],"loss_changes":[1.2657548E1,8.075895E0,3.213647E0,8.638722E0,2.760497E0,9.8896885E-1,3.1276119E0,0E0,0E0,0E0,0E0,0E0,0E0,0E0,0E0],"parents":[2147483647,0,0,1,1,2,2,3,3,4,4,5,5,6,6],"right_children":[2,4,6,8,10,12,14,-1,-1,-1,-1,-1,-1,-1,-1],"split_conditions":[4.9493544E-2,1E0,5.8614563E-2,1.5E-1,2.9331286E-2,1E0,1.509431E-1,-5.5139113E-2,1.4215979E-2,-1.836337E-2,-6.1540026E-2,6.668468E-2,7.3439376E-3,-5.416444E-3,3.4915272E-2],"split_indices":[1,28,1,4,1,21,2,0,0,0,0,0,0,0,0],"split_type":[0,0,0,0,0,0,0,0,0,0,0,0,0,0,0],"sum_hessian":[6.792649E1,4.4025166E1,2.3901327E1,2.7620522E1,1.6404644E1,5.9660254E0,1.7935303E1,4.518268E0,2.3102253E1,8.262241E0,8.142403E0,4.8635564E0,1.1024692E0,8.428401E0,9.506902E0],"tree_param":{"num_deleted":"0","num_feature":"38","num_nodes":"15","size_leaf_vector":"1"}},{"base_weights":[7.240898E-3,-4.074924E-1,4.9940237E-1,-6.297672E-1,1.9266655E-1,3.4881875E-1,1.1692214E0,-3.4543183E-2,1.1992867E-2,-3.0522138E-2,2.2774229E-2,3.4093452E-3,3.3916302E-2,1.3216766E-2,6.859946E-2],"categories":[],"categories_nodes":[],"categories_segments":[],"categories_sizes":[],"default_left":[0,0,0,0,0,0,0,0,0,0,0,0,0,0,0],"id":12,"left_children":[1,3,5,7,9,11,13,-1,-1,-1,-1,-1,-1,-1,-1],"loss_changes":[1.423078E1,5.1699195E0,2.807364E0,1.6454811E0,2.5985713E0,2.492148E0,6.328602E-1,0E0,0E0,0E0,0E0,0E0,0E0,0E0,0E0],"parents":[2147483647,0,0,1,1,2,2,3,3,4,4,5,5,6,6],"right_children":[2,4,6,8,10,12,14,-1,-1,-1,-1,-1,-1,-1,-1],"split_conditions":[1E0,8.560877E-2,1E0,1E0,1.6666667E-1,4.91095E-2,1E0,-3.4543183E-2,1.1992867E-2,-3.0522138E-2,2.2774229E-2,3.4093452E-3,3.3916302E-2,1.3216766E-2,6.859946E-2],"split_indices":[8,2,16,25,4,1,14,0,0,0,0,0,0,0,0],"split_type":[0,0,0,0,0,0,0,0,0,0,0,0,0,0,0],"sum_hessian":[6.772217E1,3.684541E1,3.0876755E1,2.6851398E1,9.994013E0,2.6451008E1,4.4257483E0,2.5280825E1,1.5705729E0,2.1380277E0,7.855985E0,1.4936746E1,1.1514261E1,1.2318853E0,3.1938632E0],"tree_param":{"num_deleted":"0","num_feature":"38","num_nodes":"15","size_leaf_vector":"1"}},{"base_weights":[8.070886E-3,-2.8688082E-1,5.2987754E-1,3.5011917E-2,-8.096138E-1,1.091652E0,2.940113E-1,-5.366071E-2,1.3955578E-2,-1.6954781E-2,-6.014469E-2,6.2299695E-2,6.890458E-3,4.231471E-3,4.83623E-2],"categories":[],"categories_nodes":[],"categories_segments":[],"categories_sizes":[],"default_left":[0,0,0,0,0,0,0,0,0,0,0,0,0,0,0],"id":13,"left_children":[1,3,5,7,9,11,13,-1,-1,-1,-1,-1,-1,-1,-1],"loss_changes":[1.067079E1,7.484541E0,2.9959006E0,7.977711E0,2.724782E0,8.637533E-1,2.5962536E0,0E0,0E0,0E0,0E0,0E0,0E0,0E0,0E0],"parents":[2147483647,0,0,1,1,2,2,3,3,4,4,5,5,6,6],"right_children":[2,4,6,8,10,12,14,-1,-1,-1,-1,-1,-1,-1,-1],"split_conditions":[4.9493544E-2,1E0,5.8614563E-2,1.5E-1,2.9331286E-2,1E0,1E0,-5.366071E-2,1.3955578E-2,-1.6954781E-2,-6.014469E-2,6.2299695E-2,6.890458E-3,4.231471E-3,4.83623E-2],"split_indices":[1,28,1,4,1,21,10,0,0,0,0,0,0,0,0],"split_type":[0,0,0,0,0,0,0,0,0,0,0,0,0,0,0],"sum_hessian":[6.7344696E1,4.331249E1,2.4032207E1,2.7383238E1,1.5929249E1,6.033544E0,1.7998663E1,4.32967E0,2.3053568E1,8.100306E0,7.828943E0,4.929596E0,1.1039485E0,1.45875225E1,3.4111412E0],"tree_param":{"num_deleted":"0","num_feature":"38","num_nodes":"15","size_leaf_vector":"1"}},{"base_weights":[7.5756623E-3,-3.8701266E-1,4.6689573E-1,-6.706469E-1,5.1158678E-2,3.104744E-1,1.036648E0,-2.3068955E-2,-5.0432216E-2,1.0510292E-2,-4.4140775E-2,-1.1983066E-3,3.0188445E-2,6.532953E-2,1.4446943E-2],"categories":[],"categories_nodes":[],"categories_segments":[],"categories_sizes":[],"default_left":[0,0,0,0,0,0,0,0,0,0,0,0,0,0,0],"id":14,"left_children":[1,3,5,7,9,11,13,-1,-1,-1,-1,-1,-1,-1,-1],"loss_changes":[1.2524124E1,4.6551094E0,2.5232706E0,1.1360912E0,2.49386E0,2.6113977E0,9.2414427E-1,0E0,0E0,0E0,0E0,0E0,0E0,0E0,0E0],"parents":[2147483647,0,0,1,1,2,2,3,3,4,4,5,5,6,6],"right_children":[2,4,6,8,10,12,14,-1,-1,-1,-1,-1,-1,-1,-1],"split_conditions":[1E0,3.7972253E-2,4.6666667E-1,4.5266706E-2,3.1666666E-1,3.893236E-2,6.25E-1,-2.3068955E-2,-5.0432216E-2,1.0510292E-2,-4.4140775E-2,-1.1983066E-3,3.0188445E-2,6.532953E-2,1.4446943E-2],"split_indices":[8,1,4,2,4,1,0,0,0,0,0,0,0,0,0],"split_type":[0,0,0,0,0,0,0,0,0,0,0,0,0,0,0],"sum_hessian":[6.710456E1,3.618044E1,3.0924124E1,2.1641224E1,1.4539215E1,2.5475061E1,5.4490633E0,1.48265505E1,6.8146734E0,1.3085765E1,1.4534507E0,1.2331675E1,1.3143387E1,3.454456E0,1.9946073E0],"tree_param":{"num_deleted":"0","num_feature":"38","num_nodes":"15","size_leaf_vector":"1"}},{"base_weights":[7.134981E-3,-3.7425628E-1,4.4641128E-1,-6.5129393E-1,4.6326123E-2,1.0747675E0,3.0642495E-1,-2.0305874E-2,-4.651262E-2,9.989842E-3,-4.3255724E-2,6.337641E-2,1.1525399E-2,9.901679E-3,5.724373E-2],"categories":[],"categories_nodes":[],"categories_segments":[],"categories_sizes":[],"default_left":[0,0,0,0,0,0,0,0,0,0,0,0,0,0,0],"id":15,"left_children":[1,3,5,7,9,11,13,-1,-1,-1,-1,-1,-1,-1,-1],"loss_changes":[1.15249815E1,4.3217006E0,2.4820867E0,1.1454525E0,2.3493915E0,5.905981E-1,2.2759132E0,0E0,0E0,0E0,0E0,0E0,0E0,0E0,0E0],"parents":[2147483647,0,0,1,1,2,2,3,3,4,4,5,5,6,6],"right_children":[2,4,6,8,10,12,14,-1,-1,-1,-1,-1,-1,-1,-1],"split_conditions":[1E0,3.7972253E-2,1E0,1E0,3.1666666E-1,1E0,1E0,-2.0305874E-2,-4.651262E-2,9.989842E-3,-4.3255724E-2,6.337641E-2,1.1525399E-2,9.901679E-3,5.724373E-2],"split_indices":[8,1,15,28,4,13,37,0,0,0,0,0,0,0,0],"split_type":[0,0,0,0,0,0,0,0,0,0,0,0,0,0,0],"sum_hessian":[6.6793785E1,3.5831738E1,3.0962044E1,2.1271591E1,1.4560148E1,4.4244366E0,2.6537607E1,1.2628364E1,8.643227E0,1.3130064E1,1.430084E0,3.1938663E0,1.2305704E0,2.4594341E1,1.9432656E0],"tree_param":{"num_deleted":"0","num_feature":"38","num_nodes":"15","size_leaf_vector":"1"}},{"base_weights":[7.315987E-3,-3.6190018E-1,4.2789468E-1,-6.3247836E-1,4.1777253E-2,2.791953E-1,9.766089E-1,-1.956558E-2,-4.5550417E-2,-2.9407203E-2,1.3335012E-2,-1.688892E-3,2.7686393E-2,6.208722E-2,1.2805285E-2],"categories":[],"categories_nodes":[],"categories_segments":[],"categories_sizes":[],"default_left":[0,0,0,0,0,0,0,0,0,0,0,0,0,0,0],"id":16,"left_children":[1,3,5,7,9,11,13,-1,-1,-1,-1,-1,-1,-1,-1],"loss_changes":[1.0635216E1,4.0112214E0,2.3390865E0,1.1148367E0,2.3640437E0,2.3029025E0,9.092717E-1,0E0,0E0,0E0,0E0,0E0,0E0,0E0,0E0],"parents":[2147483647,0,0,1,1,2,2,3,3,4,4,5,5,6,6],"right_children":[2,4,6,8,10,12,14,-1,-1,-1,-1,-1,-1,-1,-1],"split_conditions":[1E0,3.7972253E-2,4.6666667E-1,1E0,1.6666667E-1,3.893236E-2,6.25E-1,-1.956558E-2,-4.5550417E-2,-2.9407203E-2,1.3335012E-2,-1.688892E-3,2.7686393E-2,6.208722E-2,1.2805285E-2],"split_indices":[8,1,4,28,4,1,0,0,0,0,0,0,0,0,0],"split_type":[0,0,0,0,0,0,0,0,0,0,0,0,0,0,0],"sum_hessian":[6.649136E1,3.5482037E1,3.1009329E1,2.0903788E1,1.4578249E1,2.5584774E1,5.4245553E0,1.2492233E1,8.411554E0,3.4108694E0,1.116738E1,1.236517E1,1.3219604E1,3.4365206E0,1.9880346E0],"tree_param":{"num_deleted":"0","num_feature":"38","num_nodes":"15","size_leaf_vector":"1"}},{"base_weights":[7.1689226E-3,-2.5243515E-1,4.4971427E-1,4.6776928E-2,-7.5764185E-1,7.5105536E-1,7.762655E-2,-5.1683683E-2,1.3723976E-2,-1.3940505E-2,-5.838337E-2,4.7733154E-2,-2.6800498E-2,-7.1326606E-3,5.7388365E-2],"categories":[],"categories_nodes":[],"categories_segments":[],"categories_sizes":[],"default_left":[0,0,0,0,0,0,0,0,0,0,0,0,0,0,0],"id":17,"left_children":[1,3,5,7,9,11,13,-1,-1,-1,-1,-1,-1,-1,-1],"loss_changes":[7.826952E0,6.5289383E0,2.7653332E0,7.152719E0,2.8229084E0,4.1278095E0,3.0829968E0,0E0,0E0,0E0,0E0,0E0,0E0,0E0,0E0],"parents":[2147483647,0,0,1,1,2,2,3,3,4,4,5,5,6,6],"right_children":[2,4,6,8,10,12,14,-1,-1,-1,-1,-1,-1,-1,-1],"split_conditions":[4.9493544E-2,1E0,7.58965E-2,1.5E-1,2.9331286E-2,1E0,1E0,-5.1683683E-2,1.3723976E-2,-1.3940505E-2,-5.838337E-2,4.7733154E-2,-2.6800498E-2,-7.1326606E-3,5.7388365E-2],"split_indices":[1,28,1,4,1,6,26,0,0,0,0,0,0,0,0],"split_type":[0,0,0,0,0,0,0,0,0,0,0,0,0,0,0],"sum_hessian":[6.613951E1,4.1956657E1,2.4182852E1,2.6920324E1,1.5036332E1,1.279894E1,1.1383912E1,4.06975E0,2.2850574E1,7.711154E0,7.325178E0,1.1273749E1,1.5251905E0,1.0159383E1,1.2245296E0],"tree_param":{"num_deleted":"0","num_feature":"38","num_nodes":"15","size_leaf_vector":"1"}},{"base_weights":[6.0628536E-3,-2.442721E-1,4.2913496E-1,4.2965803E-2,-7.373643E-1,9.4256717E-1,2.1486941E-1,-5.081392E-2,1.3008639E-2,-1.3407762E-2,-5.7384886E-2,6.305476E-3,5.629856E-2,-9.08612E-3,2.7398873E-2],"categories":[],"categories_nodes":[],"categories_segments":[],"categories_sizes":[],"default_left":[0,0,0,0,0,0,0,0,0,0,0,0,0,0,0],"id":18,"left_children":[1,3,5,7,9,11,13,-1,-1,-1,-1,-1,-1,-1,-1],"loss_changes":[7.1901526E0,6.0748672E0,2.5732956E0,6.685015E0,2.7267065E0,9.26291E-1,2.6225884E0,0E0,0E0,0E0,0E0,0E0,0E0,0E0,0E0],"parents":[2147483647,0,0,1,1,2,2,3,3,4,4,5,5,6,6],"right_children":[2,4,6,8,10,12,14,-1,-1,-1,-1,-1,-1,-1,-1],"split_conditions":[4.9493544E-2,1E0,5.8614563E-2,1.5E-1,2.9331286E-2,4E-1,1.509431E-1,-5.081392E-2,1.3008639E-2,-1.3407762E-2,-5.7384886E-2,6.305476E-3,5.629856E-2,-9.08612E-3,2.7398873E-2],"split_indices":[1,28,1,4,1,0,2,0,0,0,0,0,0,0,0],"split_type":[0,0,0,0,0,0,0,0,0,0,0,0,0,0,0],"sum_hessian":[6.589967E1,4.1667393E1,2.4232285E1,2.6906551E1,1.4760839E1,6.1341987E0,1.8098087E1,3.9525363E0,2.2954016E1,7.657792E0,7.103047E0,1.434749E0,4.6994495E0,8.469241E0,9.628845E0],"tree_param":{"num_deleted":"0","num_feature":"38","num_nodes":"15","size_leaf_vector":"1"}},{"base_weights":[5.1941606E-3,-3.4230185E-1,3.9353174E-1,-5.430228E-1,1.6274936E-1,9.9311453E-1,2.6170298E-1,-3.02888E-2,1.3530314E-2,-2.8064808E-2,1.9484138E-2,5.9087295E-2,9.692454E-3,8.107625E-3,5.1754445E-2],"categories":[],"categories_nodes":[],"categories_segments":[],"categories_sizes":[],"default_left":[0,0,0,0,0,0,0,0,0,0,0,0,0,0,0],"id":19,"left_children":[1,3,5,7,9,11,13,-1,-1,-1,-1,-1,-1,-1,-1],"loss_changes":[9.128671E0,3.7083344E0,2.2647033E0,1.4803929E0,2.013808E0,5.8490896E-1,1.9525591E0,0E0,0E0,0E0,0E0,0E0,0E0,0E0,0E0],"parents":[2147483647,0,0,1,1,2,2,3,3,4,4,5,5,6,6],"right_children":[2,4,6,8,10,12,14,-1,-1,-1,-1,-1,-1,-1,-1],"split_conditions":[1E0,8.560877E-2,1E0,1E0,1.6666667E-1,1E0,1E0,-3.02888E-2,1.3530314E-2,-2.8064808E-2,1.9484138E-2,5.9087295E-2,9.692454E-3,8.107625E-3,5.1754445E-2],"split_indices":[8,2,15,25,4,13,37,0,0,0,0,0,0,0,0],"split_type":[0,0,0,0,0,0,0,0,0,0,0,0,0,0,0],"sum_hessian":[6.5648735E1,3.4708805E1,3.0939926E1,2.4783852E1,9.924955E0,4.399009E0,2.6540918E1,2.3246382E1,1.5374706E0,2.0168068E0,7.9081483E0,3.171886E0,1.2271235E0,2.458588E1,1.9550366E0],"tree_param":{"num_deleted":"0","num_feature":"38","num_nodes":"15","size_leaf_vector":"1"}},{"base_weights":[6.4250836E-3,-3.297409E-1,3.7770057E-1,-5.247713E-1,1.5379597E-1,2.3794085E-1,9.026529E-1,-4.699285E-2,-1.7506665E-2,-2.7391825E-2,1.856292E-2,-1.994455E-3,2.4063088E-2,5.8002155E-2,1.1018764E-2],"categories":[],"categories_nodes":[],"categories_segments":[],"categories_sizes":[],"default_left":[0,0,0,0,0,0,0,0,0,0,0,0,0,0,0],"id":20,"left_children":[1,3,5,7,9,11,13,-1,-1,-1,-1,-1,-1,-1,-1],"loss_changes":[8.395633E0,3.4108791E0,2.1297693E0,1.5114503E0,1.8699814E0,1.8170872E0,8.614297E-1,0E0,0E0,0E0,0E0,0E0,0E0,0E0,0E0],"parents":[2147483647,0,0,1,1,2,2,3,3,4,4,5,5,6,6],"right_children":[2,4,6,8,10,12,14,-1,-1,-1,-1,-1,-1,-1,-1],"split_conditions":[1E0,8.560877E-2,4.6666667E-1,4.5E-1,1.6666667E-1,3.893236E-2,6.25E-1,-4.699285E-2,-1.7506665E-2,-2.7391825E-2,1.856292E-2,-1.994455E-3,2.4063088E-2,5.8002155E-2,1.1018764E-2],"split_indices":[8,2,4,0,4,1,0,0,0,0,0,0,0,0,0],"split_type":[0,0,0,0,0,0,0,0,0,0,0,0,0,0,0],"sum_hessian":[6.526935E1,3.4313007E1,3.095634E1,2.4390167E1,9.922837E0,2.5595287E1,5.3610535E0,5.9252005E0,1.8464968E1,1.9883372E0,7.9345E0,1.2340574E1,1.3254714E1,3.3841333E0,1.9769201E0],"tree_param":{"num_deleted":"0","num_feature":"38","num_nodes":"15","size_leaf_vector":"1"}},{"base_weights":[6.3232253E-3,-6.2761825E-1,1.4748628E-1,-8.994914E-1,-1.1112655E-1,3.5810086E-1,-3.06727E-1,-5.3322818E-2,-4.947493E-3,9.215838E-3,-3.277427E-2,-1.2372135E-2,2.7339855E-2,-3.210203E-2,1.5986033E-2],"categories":[],"categories_nodes":[],"categories_segments":[],"categories_sizes":[],"default_left":[0,0,0,0,0,0,0,0,0,0,0,0,0,0,0],"id":21,"left_children":[1,3,5,7,9,11,13,-1,-1,-1,-1,-1,-1,-1,-1],"loss_changes":[5.990788E0,1.6123104E0,5.3441925E0,9.434271E-1,9.8061574E-1,4.459455E0,3.959495E0,0E0,0E0,0E0,0E0,0E0,0E0,0E0,0E0],"parents":[2147483647,0,0,1,1,2,2,3,3,4,4,5,5,6,6],"right_children":[2,4,6,8,10,12,14,-1,-1,-1,-1,-1,-1,-1,-1],"split_conditions":[1.6666667E-1,1E0,1E0,4.91095E-2,2.3267327E-1,2.749363E-2,4.9493544E-2,-5.3322818E-2,-4.947493E-3,9.215838E-3,-3.277427E-2,-1.2372135E-2,2.7339855E-2,-3.210203E-2,1.5986033E-2],"split_indices":[4,22,28,1,3,2,1,0,0,0,0,0,0,0,0],"split_type":[0,0,0,0,0,0,0,0,0,0,0,0,0,0,0],"sum_hessian":[6.4909935E1,1.1193884E1,5.3716053E1,6.8477798E0,4.346104E0,3.684361E1,1.6872444E1,5.3911967E0,1.456583E0,3.2458625E0,1.1002418E0,8.679375E0,2.8164236E1,1.0973733E1,5.8987117E0],"tree_param":{"num_deleted":"0","num_feature":"38","num_nodes":"15","size_leaf_vector":"1"}},{"base_weights":[4.6151355E-3,9.2849135E-1,-8.895265E-2,5.3594925E-2,9.804547E-3,-1.6919917E-1,5.5364188E-2,-3.7738714E-2,-3.6308158E-3],"categories":[],"categories_nodes":[],"categories_segments":[],"categories_sizes":[],"default_left":[0,0,0,0,0,0,0,0,0],"id":22,"left_children":[1,3,5,-1,-1,7,-1,-1,-1],"loss_changes":[5.7588797E0,4.3324232E-1,5.9985714E0,0E0,0E0,3.2028008E0,0E0,0E0,0E0],"parents":[2147483647,0,0,1,1,2,2,5,5],"right_children":[2,4,6,-1,-1,8,-1,-1,-1],"split_conditions":[1E0,1E0,1E0,5.3594925E-2,9.804547E-3,1.5E-1,5.5364188E-2,-3.7738714E-2,-3.6308158E-3],"split_indices":[15,23,37,0,0,4,0,0,0],"split_type":[0,0,0,0,0,0,0,0,0],"sum_hessian":[6.4663536E1,5.1260815E0,5.9537457E1,3.8990827E0,1.2269986E0,5.6599197E1,2.9382582E0,7.0486913E0,4.9550507E1],"tree_param":{"num_deleted":"0","num_feature":"38","num_nodes":"9","size_leaf_vector":"1"}},{"base_weights":[5.5359835E-3,-3.1061298E-1,3.4893626E-1,-3.8441008E-1,2.941879E-2,2.1546583E-1,8.554367E-1,-2.2108445E-2,3.582461E-2,1.0813158E-3,2.2778573E-2,5.5539083E-2,9.680164E-3],"categories":[],"categories_nodes":[],"categories_segments":[],"categories_sizes":[],"default_left":[0,0,0,0,0,0,0,0,0,0,0,0,0],"id":23,"left_children":[1,3,5,7,-1,9,11,-1,-1,-1,-1,-1,-1],"loss_changes":[7.2144227E0,2.52218E0,1.968539E0,2.3889523E0,0E0,1.225404E0,8.504605E-1,0E0,0E0,0E0,0E0,0E0,0E0],"parents":[2147483647,0,0,1,1,2,2,3,3,5,5,6,6],"right_children":[2,4,6,8,-1,10,12,-1,-1,-1,-1,-1,-1],"split_conditions":[1E0,1E0,4.6666667E-1,1E0,2.941879E-2,1.3861386E-1,6.25E-1,-2.2108445E-2,3.582461E-2,1.0813158E-3,2.2778573E-2,5.5539083E-2,9.680164E-3],"split_indices":[8,25,4,37,0,3,0,0,0,0,0,0,0],"split_type":[0,0,0,0,0,0,0,0,0,0,0,0,0],"sum_hessian":[6.445385E1,3.360819E1,3.084566E1,3.1587593E1,2.0205967E0,2.5540703E1,5.3049555E0,3.0581493E1,1.0061E0,1.4735039E1,1.0805664E1,3.3385525E0,1.9664028E0],"tree_param":{"num_deleted":"0","num_feature":"38","num_nodes":"13","size_leaf_vector":"1"}},{"base_weights":[7.258144E-3,-2.9655677E-1,3.3429772E-1,-4.8355067E-1,1.5271287E-1,8.8672096E-1,2.1560727E-1,-1.6511867E-2,-5.0235003E-2,-5.375668E-3,3.5847034E-2,5.3739727E-2,6.9946707E-3,6.9022267E-3,4.3800518E-2],"categories":[],"categories_nodes":[],"categories_segments":[],"categories_sizes":[],"default_left":[0,0,0,0,0,0,0,0,0,0,0,0,0,0,0],"id":24,"left_children":[1,3,5,7,9,11,13,-1,-1,-1,-1,-1,-1,-1,-1],"loss_changes":[6.57248E0,2.9557898E0,1.8968878E0,1.6227546E0,1.668958E0,5.956068E-1,1.2895018E0,0E0,0E0,0E0,0E0,0E0,0E0,0E0,0E0],"parents":[2147483647,0,0,1,1,2,2,3,3,4,4,5,5,6,6],"right_children":[2,4,6,8,10,12,14,-1,-1,-1,-1,-1,-1,-1,-1],"split_conditions":[1E0,8.560877E-2,1E0,2.3333333E-1,7E-1,1E0,3.0001417E-1,-1.6511867E-2,-5.0235003E-2,-5.375668E-3,3.5847034E-2,5.3739727E-2,6.9946707E-3,6.9022267E-3,4.3800518E-2],"split_indices":[8,2,15,4,0,13,2,0,0,0,0,0,0,0,0],"split_type":[0,0,0,0,0,0,0,0,0,0,0,0,0,0,0],"sum_hessian":[6.41507E1,3.3304512E1,3.0846191E1,2.3462646E1,9.841867E0,4.3109202E0,2.653527E1,1.9391628E1,4.0710177E0,7.289393E0,2.5524743E0,3.0928912E0,1.2180293E0,2.482828E1,1.7069902E0],"tree_param":{"num_deleted":"0","num_feature":"38","num_nodes":"15","size_leaf_vector":"1"}},{"base_weights":[8.023621E-3,-2.8544572E-1,3.2117495E-1,-6.650645E-1,-6.334891E-2,1.9321309E-1,8.144424E-1,-3.8652133E-2,7.2267926E-3,6.627071E-2,-1.3784016E-2,-2.4197511E-3,2.0277638E-2,5.336122E-2,8.5955905E-3],"categories":[],"categories_nodes":[],"categories_segments":[],"categories_sizes":[],"default_left":[0,0,0,0,0,0,0,0,0,0,0,0,0,0,0],"id":25,"left_children":[1,3,5,7,9,11,13,-1,-1,-1,-1,-1,-1,-1,-1],"loss_changes":[6.050622E0,2.8246534E0,1.8523197E0,1.1996703E0,7.0169435E0,1.3838778E0,8.312197E-1,0E0,0E0,0E0,0E0,0E0,0E0,0E0,0E0],"parents":[2147483647,0,0,1,1,2,2,3,3,4,4,5,5,6,6],"right_children":[2,4,6,8,10,12,14,-1,-1,-1,-1,-1,-1,-1,-1],"split_conditions":[1E0,3.634612E-2,4.6666667E-1,3.5148516E-1,4.3028615E-2,3.893236E-2,6.25E-1,-3.8652133E-2,7.2267926E-3,6.627071E-2,-1.3784016E-2,-2.4197511E-3,2.0277638E-2,5.336122E-2,8.5955905E-3],"split_indices":[8,2,4,3,2,1,0,0,0,0,0,0,0,0,0],"split_type":[0,0,0,0,0,0,0,0,0,0,0,0,0,0,0],"sum_hessian":[6.3841393E1,3.3002045E1,3.0839348E1,1.1445077E1,2.1556967E1,2.5592043E1,5.2473044E0,1.0138093E1,1.3069842E0,2.1636064E0,1.939336E1,1.2332146E1,1.3259898E1,3.291431E0,1.9558736E0],"tree_param":{"num_deleted":"0","num_feature":"38","num_nodes":"15","size_leaf_vector":"1"}},{"base_weights":[9.110144E-3,-7.289051E-1,1.09827965E-1,-4.6045743E-2,2.310019E-3,2.9657334E-1,-2.969944E-1,-1.2625954E-2,2.3776729E-2,-3.2654297E-2,1.8566897E-2],"categories":[],"categories_nodes":[],"categories_segments":[],"categories_sizes":[],"default_left":[0,0,0,0,0,0,0,0,0,0,0],"id":26,"left_children":[1,3,5,-1,-1,7,9,-1,-1,-1,-1],"loss_changes":[4.877666E0,1.2155418E0,4.4687963E0,0E0,0E0,4.0528026E0,4.678842E0,0E0,0E0,0E0,0E0],"parents":[2147483647,0,0,1,1,2,2,5,5,6,6],"right_children":[2,4,6,-1,-1,8,10,-1,-1,-1,-1],"split_conditions":[1.5E-1,2.0792079E-1,1E0,-4.6045743E-2,2.310019E-3,2.749363E-2,4.9493544E-2,-1.2625954E-2,2.3776729E-2,-3.2654297E-2,1.8566897E-2],"split_indices":[4,3,28,0,0,2,1,0,0,0,0],"split_type":[0,0,0,0,0,0,0,0,0,0,0],"sum_hessian":[6.3543644E1,6.881558E0,5.6662086E1,5.3645353E0,1.5170227E0,3.9021076E1,1.7641008E1,9.490648E0,2.9530428E1,1.1523846E1,6.117162E0],"tree_param":{"num_deleted":"0","num_feature":"38","num_nodes":"11","size_leaf_vector":"1"}},{"base_weights":[7.833316E-3,-2.706304E-1,3.0198798E-1,-4.517773E-1,1.5297432E-1,1.7805734E-1,7.83716E-1,-1.5024795E-2,-4.894192E-2,2.9618979E-2,-1.0862225E-2,3.6069774E-3,3.1952213E-2,5.1618557E-2,8.012426E-3],"categories":[],"categories_nodes":[],"categories_segments":[],"categories_sizes":[],"default_left":[0,0,0,0,0,0,0,0,0,0,0,0,0,0,0],"id":27,"left_children":[1,3,5,7,9,11,13,-1,-1,-1,-1,-1,-1,-1,-1],"loss_changes":[5.347732E0,2.6437693E0,1.7551386E0,1.5999827E0,1.8851719E0,1.2495838E0,7.9573035E-1,0E0,0E0,0E0,0E0,0E0,0E0,0E0,0E0],"parents":[2147483647,0,0,1,1,2,2,3,3,4,4,5,5,6,6],"right_children":[2,4,6,8,10,12,14,-1,-1,-1,-1,-1,-1,-1,-1],"split_conditions":[1E0,8.560877E-2,4.6666667E-1,2.3333333E-1,5.8614563E-2,1.9732526E-1,6.25E-1,-1.5024795E-2,-4.894192E-2,2.9618979E-2,-1.0862225E-2,3.6069774E-3,3.1952213E-2,5.1618557E-2,8.012426E-3],"split_indices":[8,2,4,4,1,2,0,0,0,0,0,0,0,0,0],"split_type":[0,0,0,0,0,0,0,0,0,0,0,0,0,0,0],"sum_hessian":[6.3289047E1,3.2552734E1,3.0736315E1,2.2755322E1,9.797411E0,2.553638E1,5.199935E0,1.8900484E1,3.8548374E0,4.2056866E0,5.591724E0,2.17057E1,3.8306806E0,3.2484958E0,1.9514391E0],"tree_param":{"num_deleted":"0","num_feature":"38","num_nodes":"15","size_leaf_vector":"1"}},{"base_weights":[8.204459E-3,-7.539352E-2,8.32381E-1,-1.5050985E-1,5.095745E-2,5.024463E-2,7.991693E-3,-2.8731376E-2,-1.1256285E-3],"categories":[],"categories_nodes":[],"categories_segments":[],"categories_sizes":[],"default_left":[0,0,0,0,0,0,0,0,0],"id":28,"left_children":[1,3,5,7,-1,-1,-1,-1,-1],"loss_changes":[4.4711857E0,5.0049224E0,5.3265905E-1,3.0319548E0,0E0,0E0,0E0,0E0,0E0],"parents":[2147483647,0,0,1,1,2,2,3,3],"right_children":[2,4,6,8,-1,-1,-1,-1,-1],"split_conditions":[1E0,1E0,9.557871E-2,4.25E-1,5.095745E-2,5.024463E-2,7.991693E-3,-2.8731376E-2,-1.1256285E-3],"split_indices":[16,37,1,0,0,0,0,0,0],"split_type":[0,0,0,0,0,0,0,0,0],"sum_hessian":[6.298348E1,5.8008114E1,4.9753637E0,5.5089893E1,2.918222E0,3.5664043E0,1.4089593E0,1.1962593E1,4.31273E1],"tree_param":{"num_deleted":"0","num_feature":"38","num_nodes":"9","size_leaf_vector":"1"}},{"base_weights":[9.032918E-3,-7.046182E-1,1.04783565E-1,-4.4932615E-2,2.8078444E-3,2.769634E-1,-2.7604845E-1,9.779672E-3,5.5721816E-2,-3.1229017E-2,1.798276E-2],"categories":[],"categories_nodes":[],"categories_segments":[],"categories_sizes":[],"default_left":[0,0,0,0,0,0,0,0,0,0,0],"id":29,"left_children":[1,3,5,-1,-1,7,9,-1,-1,-1,-1],"loss_changes":[4.4348726E0,1.184061E0,3.8233147E0,0E0,0E0,2.497587E0,4.277416E0,0E0,0E0,0E0,0E0],"parents":[2147483647,0,0,1,1,2,2,5,5,6,6],"right_children":[2,4,6,-1,-1,8,10,-1,-1,-1,-1],"split_conditions":[1.5E-1,2.0792079E-1,1E0,-4.4932615E-2,2.8078444E-3,1E0,4.9493544E-2,9.779672E-3,5.5721816E-2,-3.1229017E-2,1.798276E-2],"split_indices":[4,3,28,0,0,26,1,0,0,0,0],"split_type":[0,0,0,0,0,0,0,0,0,0,0],"sum_hessian":[6.282083E1,6.679337E0,5.6141495E1,5.177575E0,1.501762E0,3.8849705E1,1.729179E1,3.6533604E1,2.316101E0,1.1179822E1,6.1119685E0],"tree_param":{"num_deleted":"0","num_feature":"38","num_nodes":"11","size_leaf_vector":"1"}},{"base_weights":[8.675609E-3,-2.547566E-1,2.8411546E-1,-3.376402E-1,5.151413E-1,1.6787335E-1,7.400685E-1,-1.9730864E-2,3.311694E-2,-7.088791E-3,5.180655E-2,1.7860075E-2,-2.5225577E-3,4.948387E-2,6.6350377E-3],"categories":[],"categories_nodes":[],"categories_segments":[],"categories_sizes":[],"default_left":[0,0,0,0,0,0,0,0,0,0,0,0,0,0,0],"id":30,"left_children":[1,3,5,7,9,11,13,-1,-1,-1,-1,-1,-1,-1,-1],"loss_changes":[4.684666E0,2.2808824E0,1.547795E0,1.9941831E0,1.3807085E0,1.1105773E0,7.958014E-1,0E0,0E0,0E0,0E0,0E0,0E0,0E0,0E0],"parents":[2147483647,0,0,1,1,2,2,3,3,4,4,5,5,6,6],"right_children":[2,4,6,8,10,12,14,-1,-1,-1,-1,-1,-1,-1,-1],"split_conditions":[1E0,1E0,4.6666667E-1,1E0,6E-1,3E-1,6.25E-1,-1.9730864E-2,3.311694E-2,-7.088791E-3,5.180655E-2,1.7860075E-2,-2.5225577E-3,4.948387E-2,6.6350377E-3],"split_indices":[8,36,4,37,0,4,0,0,0,0,0,0,0,0,0],"split_type":[0,0,0,0,0,0,0,0,0,0,0,0,0,0,0],"sum_hessian":[6.256537E1,3.2018135E1,3.0547234E1,2.9413107E1,2.6050284E0,2.543176E1,5.115472E0,2.8400282E1,1.0128238E0,1.4741462E0,1.1308821E0,1.3279688E1,1.2152073E1,3.17939E0,1.936082E0],"tree_param":{"num_deleted":"0","num_feature":"38","num_nodes":"15","size_leaf_vector":"1"}},{"base_weights":[1.0278393E-2,-2.4229743E-1,2.7216905E-1,-4.7126654E-1,5.8416866E-2,7.7590656E-1,1.672862E-1,-1.2890386E-2,-3.770701E-2,1.0167538E-2,-4.129122E-2,4.8387438E-2,3.8187415E-3,1.1020458E-2,-2.71855E-2],"categories":[],"categories_nodes":[],"categories_segments":[],"categories_sizes":[],"default_left":[0,0,0,0,0,0,0,0,0,0,0,0,0,0,0],"id":31,"left_children":[1,3,5,7,9,11,13,-1,-1,-1,-1,-1,-1,-1,-1],"loss_changes":[4.253358E0,2.2828054E0,1.5371001E0,9.3506336E-1,2.0965083E0,6.188445E-1,1.1542883E0,0E0,0E0,0E0,0E0,0E0,0E0,0E0,0E0],"parents":[2147483647,0,0,1,1,2,2,3,3,4,4,5,5,6,6],"right_children":[2,4,6,8,10,12,14,-1,-1,-1,-1,-1,-1,-1,-1],"split_conditions":[1E0,3.7972253E-2,1E0,1E0,3.1666666E-1,1E0,3.4158415E-1,-1.2890386E-2,-3.770701E-2,1.0167538E-2,-4.129122E-2,4.8387438E-2,3.8187415E-3,1.1020458E-2,-2.71855E-2],"split_indices":[8,1,15,28,4,13,3,0,0,0,0,0,0,0,0],"split_type":[0,0,0,0,0,0,0,0,0,0,0,0,0,0,0],"sum_hessian":[6.23044E1,3.175432E1,3.055008E1,1.7705719E1,1.4048601E1,4.1621275E0,2.6387953E1,1.1180334E1,6.525386E0,1.27317915E1,1.3168099E0,2.9654484E0,1.1966794E0,2.5195442E1,1.1925098E0],"tree_param":{"num_deleted":"0","num_feature":"38","num_nodes":"15","size_leaf_vector":"1"}},{"base_weights":[9.018235E-3,-2.3453118E-1,2.5978792E-1,-4.5686653E-1,5.332733E-2,7.5283825E-1,1.5815277E-1,-1.2387175E-2,-3.693511E-2,1.398579E-2,-1.8863058E-2,4.70247E-2,3.7157745E-3,3.8797453E-3,4.0707283E-2],"categories":[],"categories_nodes":[],"categories_segments":[],"categories_sizes":[],"default_left":[0,0,0,0,0,0,0,0,0,0,0,0,0,0,0],"id":32,"left_children":[1,3,5,7,9,11,13,-1,-1,-1,-1,-1,-1,-1,-1],"loss_changes":[3.912097E0,2.1053183E0,1.4615567E0,9.0437865E-1,1.5740443E0,5.826411E-1,1.3857105E0,0E0,0E0,0E0,0E0,0E0,0E0,0E0,0E0],"parents":[2147483647,0,0,1,1,2,2,3,3,4,4,5,5,6,6],"right_children":[2,4,6,8,10,12,14,-1,-1,-1,-1,-1,-1,-1,-1],"split_conditions":[1E0,3.7972253E-2,1E0,1E0,1E0,1E0,1E0,-1.2387175E-2,-3.693511E-2,1.398579E-2,-1.8863058E-2,4.70247E-2,3.7157745E-3,3.8797453E-3,4.0707283E-2],"split_indices":[8,1,15,28,34,13,37,0,0,0,0,0,0,0,0],"split_type":[0,0,0,0,0,0,0,0,0,0,0,0,0,0,0],"sum_hessian":[6.205658E1,3.1514355E1,3.0542225E1,1.7449577E1,1.4064777E1,4.1248035E0,2.6417421E1,1.1095622E1,6.353955E0,9.4478245E0,4.616952E0,2.9287286E0,1.196075E0,2.4524078E1,1.893343E0],"tree_param":{"num_deleted":"0","num_feature":"38","num_nodes":"15","size_leaf_vector":"1"}},{"base_weights":[9.21206E-3,7.5340194E-1,-6.576932E-2,4.598866E-2,3.1119396E-3,-1.34109E-1,4.5789976E-2,-2.7191604E-2,-6.463677E-4],"categories":[],"categories_nodes":[],"categories_segments":[],"categories_sizes":[],"default_left":[0,0,0,0,0,0,0,0,0],"id":33,"left_children":[1,3,5,-1,-1,7,-1,-1,-1],"loss_changes":[3.552825E0,6.127937E-1,4.010465E0,0E0,0E0,2.7265112E0,0E0,0E0,0E0],"parents":[2147483647,0,0,1,1,2,2,5,5],"right_children":[2,4,6,-1,-1,8,-1,-1,-1],"split_conditions":[1E0,1E0,1E0,4.598866E-2,3.1119396E-3,4.25E-1,4.5789976E-2,-2.7191604E-2,-6.463677E-4],"split_indices":[15,23,37,0,0,0,0,0,0],"split_type":[0,0,0,0,0,0,0,0,0],"sum_hessian":[6.178226E1,4.82695E0,5.695531E1,3.623878E0,1.2030722E0,5.4055202E1,2.900108E0,1.1542275E1,4.2512928E1],"tree_param":{"num_deleted":"0","num_feature":"38","num_nodes":"9","size_leaf_vector":"1"}},{"base_weights":[9.832113E-3,-6.7474896E-1,9.965455E-2,-4.3693133E-2,3.8659857E-3,-3.8301653E-1,2.1944447E-1,1.7244635E-2,-4.7105882E-2,4.14162E-2,1.2687492E-3],"categories":[],"categories_nodes":[],"categories_segments":[],"categories_sizes":[],"default_left":[0,0,0,0,0,0,0,0,0,0,0],"id":34,"left_children":[1,3,5,-1,-1,7,9,-1,-1,-1,-1],"loss_changes":[3.9175565E0,1.1744206E0,3.3349137E0,0E0,0E0,5.022903E0,5.3768797E0,0E0,0E0,0E0,0E0],"parents":[2147483647,0,0,1,1,2,2,5,5,6,6],"right_children":[2,4,6,-1,-1,8,10,-1,-1,-1,-1],"split_conditions":[1.5E-1,2.0792079E-1,2.6177105E-2,-4.3693133E-2,3.8659857E-3,1.4024572E-2,4.3028615E-2,1.7244635E-2,-4.7105882E-2,4.14162E-2,1.2687492E-3],"split_indices":[4,3,2,0,0,2,2,0,0,0,0],"split_type":[0,0,0,0,0,0,0,0,0,0,0],"sum_hessian":[6.1616177E1,6.3914847E0,5.5224693E1,4.925493E0,1.465992E0,1.0543645E1,4.468105E1,4.7467933E0,5.7968516E0,1.0009319E1,3.467173E1],"tree_param":{"num_deleted":"0","num_feature":"38","num_nodes":"11","size_leaf_vector":"1"}},{"base_weights":[8.780009E-3,-6.5820175E-1,9.473293E-2,-4.285386E-2,3.7455556E-3,-3.7003356E-1,2.0871447E-1,1.645348E-2,-4.5997385E-2,4.0062178E-2,1.493895E-3],"categories":[],"categories_nodes":[],"categories_segments":[],"categories_sizes":[],"default_left":[0,0,0,0,0,0,0,0,0,0,0],"id":35,"left_children":[1,3,5,-1,-1,7,9,-1,-1,-1,-1],"loss_changes":[3.6467707E0,1.1231859E0,3.0576074E0,0E0,0E0,4.7011085E0,4.831359E0,0E0,0E0,0E0,0E0],"parents":[2147483647,0,0,1,1,2,2,5,5,6,6],"right_children":[2,4,6,-1,-1,8,10,-1,-1,-1,-1],"split_conditions":[1.5E-1,2.0792079E-1,2.6177105E-2,-4.285386E-2,3.7455556E-3,1.4024572E-2,4.1665625E-2,1.645348E-2,-4.5997385E-2,4.0062178E-2,1.493895E-3],"split_indices":[4,3,2,0,0,2,2,0,0,0,0],"split_type":[0,0,0,0,0,0,0,0,0,0,0],"sum_hessian":[6.1523598E1,6.2633376E0,5.526026E1,4.7938037E0,1.4695339E0,1.0440809E1,4.481945E1,4.7736673E0,5.667142E0,9.584235E0,3.5235214E1],"tree_param":{"num_deleted":"0","num_feature":"38","num_nodes":"11","size_leaf_vector":"1"}},{"base_weights":[7.7900793E-3,-6.4207107E-1,9.00809E-2,-4.203369E-2,3.6289373E-3,3.2307617E-2,5.0753243E-2,-2.3252118E-2,7.7532902E-3],"categories":[],"categories_nodes":[],"categories_segments":[],"categories_sizes":[],"default_left":[0,0,0,0,0,0,0,0,0],"id":36,"left_children":[1,3,5,-1,-1,7,-1,-1,-1],"loss_changes":[3.3958817E0,1.0742242E0,2.9748125E0,0E0,0E0,3.3693237E0,0E0,0E0,0E0],"parents":[2147483647,0,0,1,1,2,2,5,5],"right_children":[2,4,6,-1,-1,8,-1,-1,-1],"split_conditions":[1.5E-1,2.0792079E-1,1E0,-4.203369E-2,3.6289373E-3,2.6177105E-2,5.0753243E-2,-2.3252118E-2,7.7532902E-3],"split_indices":[4,3,26,0,0,2,0,0,0],"split_type":[0,0,0,0,0,0,0,0,0],"sum_hessian":[6.141946E1,6.138723E0,5.5280735E1,4.6657553E0,1.4729675E0,5.300504E1,2.2756975E0,9.941037E0,4.3064003E1],"tree_param":{"num_deleted":"0","num_feature":"38","num_nodes":"9","size_leaf_vector":"1"}},{"base_weights":[7.311181E-3,7.256456E-1,-6.5042324E-2,4.5201804E-2,4.206776E-3,-1.2958518E-1,8.649705E-1,-2.6150076E-2,-7.1945065E-4,6.183393E-3,5.4115605E-2],"categories":[],"categories_nodes":[],"categories_segments":[],"categories_sizes":[],"default_left":[0,0,0,0,0,0,0,0,0,0,0],"id":37,"left_children":[1,3,5,-1,-1,7,9,-1,-1,-1,-1],"loss_changes":[3.2827E0,5.8525825E-1,3.5619748E0,0E0,0E0,2.4675572E0,4.8807716E-1,0E0,0E0,0E0,0E0],"parents":[2147483647,0,0,1,1,2,2,5,5,6,6],"right_children":[2,4,6,-1,-1,8,10,-1,-1,-1,-1],"split_conditions":[1E0,9.557871E-2,1E0,4.5201804E-2,4.206776E-3,4.25E-1,4.2772792E-2,-2.6150076E-2,-7.1945065E-4,6.183393E-3,5.4115605E-2],"split_indices":[15,1,37,0,0,0,1,0,0,0,0],"split_type":[0,0,0,0,0,0,0,0,0,0,0],"sum_hessian":[6.1252304E1,4.778784E0,5.6473522E1,3.418844E0,1.35994E0,5.3613415E1,2.860106E0,1.1341158E1,4.227226E1,1.0041573E0,1.8559488E0],"tree_param":{"num_deleted":"0","num_feature":"38","num_nodes":"11","size_leaf_vector":"1"}},{"base_weights":[8.294287E-3,-6.242018E-1,8.708549E-2,-4.1143656E-2,3.5969303E-3,5.321184E-1,-2.0443195E-2,3.5587754E-2,-2.2163892E-2,-4.5067735E-2,2.0686446E-3],"categories":[],"categories_nodes":[],"categories_segments":[],"categories_sizes":[],"default_left":[0,0,0,0,0,0,0,0,0,0,0],"id":38,"left_children":[1,3,5,-1,-1,7,9,-1,-1,-1,-1],"loss_changes":[3.1480348E0,1.0271807E0,2.6944816E0,0E0,0E0,2.2341378E0,2.549233E0,0E0,0E0,0E0,0E0],"parents":[2147483647,0,0,1,1,2,2,5,5,6,6],"right_children":[2,4,6,-1,-1,8,10,-1,-1,-1,-1],"split_conditions":[1.5E-1,2.0792079E-1,1E0,-4.1143656E-2,3.5969303E-3,1E0,2.5E-1,3.5587754E-2,-2.2163892E-2,-4.5067735E-2,2.0686446E-3],"split_indices":[4,3,9,0,0,35,0,0,0,0,0],"split_type":[0,0,0,0,0,0,0,0,0,0,0],"sum_hessian":[6.1078217E1,5.999005E0,5.5079212E1,4.52544E0,1.4735647E0,9.950033E0,4.5129177E1,8.630806E0,1.3192271E0,2.068647E0,4.306053E1],"tree_param":{"num_deleted":"0","num_feature":"38","num_nodes":"11","size_leaf_vector":"1"}},{"base_weights":[6.755143E-3,-2.089547E-1,2.2435424E-1,-2.8857273E-1,4.925903E-1,2.750466E-1,-2.8712515E-2,-1.7121738E-2,3.0310616E-2,-2.6571096E-3,4.4118408E-2,1.8979585E-3,2.8321728E-2],"categories":[],"categories_nodes":[],"categories_segments":[],"categories_sizes":[],"default_left":[0,0,0,0,0,0,0,0,0,0,0,0,0],"id":39,"left_children":[1,3,5,7,9,11,-1,-1,-1,-1,-1,-1,-1],"loss_changes":[2.9541497E0,1.9084082E0,1.4257271E0,1.6066625E0,8.110448E-1,2.0595458E0,0E0,0E0,0E0,0E0,0E0,0E0,0E0],"parents":[2147483647,0,0,1,1,2,2,3,3,4,4,5,5],"right_children":[2,4,6,8,10,12,-1,-1,-1,-1,-1,-1,-1],"split_conditions":[1E0,1E0,3.4158415E-1,1E0,4.3252844E-2,1.3861386E-1,-2.8712515E-2,-1.7121738E-2,3.0310616E-2,-2.6571096E-3,4.4118408E-2,1.8979585E-3,2.8321728E-2],"split_indices":[8,36,3,37,1,3,0,0,0,0,0,0,0],"split_type":[0,0,0,0,0,0,0,0,0,0,0,0,0],"sum_hessian":[6.093816E1,3.0621878E1,3.0316284E1,2.8029484E1,2.5923927E0,2.9123243E1,1.1930408E0,2.7020285E1,1.0092E0,1.4399551E0,1.1524376E0,1.6681023E1,1.2442221E1],"tree_param":{"num_deleted":"0","num_feature":"38","num_nodes":"13","size_leaf_vector":"1"}},{"base_weights":[7.3151994E-3,-6.047591E-1,8.2141146E-2,-7.929206E-1,6.449543E-3,2.2958429E-1,-2.500621E-1,-7.686353E-3,-4.592747E-2,-1.2784056E-2,1.9134993E-2,-2.9431835E-2,1.6801713E-2],"categories":[],"categories_nodes":[],"categories_segments":[],"categories_sizes":[],"default_left":[0,0,0,0,0,0,0,0,0,0,0,0,0],"id":40,"left_children":[1,3,5,7,-1,9,11,-1,-1,-1,-1,-1,-1],"loss_changes":[2.8756108E0,1.0467792E0,2.7935863E0,3.0725288E-1,0E0,3.0113156E0,3.700336E0,0E0,0E0,0E0,0E0,0E0,0E0],"parents":[2147483647,0,0,1,1,2,2,3,3,5,5,6,6],"right_children":[2,4,6,8,-1,10,12,-1,-1,-1,-1,-1,-1],"split_conditions":[1.5E-1,4.91095E-2,1E0,3.1596582E-2,6.449543E-3,2.749363E-2,4.9493544E-2,-7.686353E-3,-4.592747E-2,-1.2784056E-2,1.9134993E-2,-2.9431835E-2,1.6801713E-2],"split_indices":[4,1,28,2,0,2,1,0,0,0,0,0,0],"split_type":[0,0,0,0,0,0,0,0,0,0,0,0,0],"sum_hessian":[6.0702938E1,5.841054E0,5.486188E1,4.5847163E0,1.2563379E0,3.8211304E1,1.665058E1,1.1183356E0,3.4663806E0,9.004308E0,2.9206995E1,1.0551107E1,6.099471E0],"tree_param":{"num_deleted":"0","num_feature":"38","num_nodes":"13","size_leaf_vector":"1"}},{"base_weights":[6.008724E-3,6.7062765E-1,-6.0555264E-2,4.2566195E-2,2.322875E-3,-1.2165683E-1,8.195752E-1,-2.4653902E-2,-7.345973E-4,5.6161466E-3,5.1567584E-2],"categories":[],"categories_nodes":[],"categories_segments":[],"categories_sizes":[],"default_left":[0,0,0,0,0,0,0,0,0,0,0],"id":41,"left_children":[1,3,5,-1,-1,7,9,-1,-1,-1,-1],"loss_changes":[2.7595718E0,6.0082984E-1,3.1532874E0,0E0,0E0,2.136795E0,4.5561504E-1,0E0,0E0,0E0,0E0],"parents":[2147483647,0,0,1,1,2,2,5,5,6,6],"right_children":[2,4,6,-1,-1,8,10,-1,-1,-1,-1],"split_conditions":[1E0,9.557871E-2,1E0,4.2566195E-2,2.322875E-3,4.25E-1,4.2772792E-2,-2.4653902E-2,-7.345973E-4,5.6161466E-3,5.1567584E-2],"split_indices":[15,1,37,0,0,0,1,0,0,0,0],"split_type":[0,0,0,0,0,0,0,0,0,0,0],"sum_hessian":[6.0459785E1,4.677873E0,5.5781914E1,3.3454435E0,1.3324299E0,5.296657E1,2.8153405E0,1.103596E1,4.193061E1,1.0014076E0,1.8139329E0],"tree_param":{"num_deleted":"0","num_feature":"38","num_nodes":"11","size_leaf_vector":"1"}},{"base_weights":[6.9742543E-3,-7.2468305E-1,6.5750614E-2,-4.3354813E-2,-5.3499253E-3,1.5631547E-2,4.5830246E-2,3.1222885E-2,-2.491735E-3],"categories":[],"categories_nodes":[],"categories_segments":[],"categories_sizes":[],"default_left":[0,0,0,0,0,0,0,0,0],"id":42,"left_children":[1,3,5,-1,-1,7,-1,-1,-1],"loss_changes":[2.6832967E0,3.154347E-1,2.4440007E0,0E0,0E0,2.241549E0,0E0,0E0,0E0],"parents":[2147483647,0,0,1,1,2,2,5,5],"right_children":[2,4,6,-1,-1,8,-1,-1,-1],"split_conditions":[1.3333334E-1,6.387127E-2,1E0,-4.3354813E-2,-5.3499253E-3,1E0,4.5830246E-2,3.1222885E-2,-2.491735E-3],"split_indices":[4,2,26,0,0,15,0,0,0],"split_type":[0,0,0,0,0,0,0,0,0],"sum_hessian":[6.0288227E1,3.6405532E0,5.6647675E1,2.630322E0,1.0102313E0,5.4458214E1,2.1894572E0,4.4582787E0,4.9999935E1],"tree_param":{"num_deleted":"0","num_feature":"38","num_nodes":"9","size_leaf_vector":"1"}},{"base_weights":[7.0548225E-3,-1.91377E-1,2.0498876E-1,-5.4189074E-1,-4.9231173E-3,2.5397357E-1,-2.7934864E-2,-3.2863505E-2,9.453889E-3,6.564364E-2,-1.1092658E-2,3.3009764E-2,4.74184E-3],"categories":[],"categories_nodes":[],"categories_segments":[],"categories_sizes":[],"default_left":[0,0,0,0,0,0,0,0,0,0,0,0,0],"id":43,"left_children":[1,3,5,7,9,11,-1,-1,-1,-1,-1,-1,-1],"loss_changes":[2.439692E0,2.0257683E0,1.3045591E0,1.0324414E0,6.371505E0,1.8698748E0,0E0,0E0,0E0,0E0,0E0,0E0,0E0],"parents":[2147483647,0,0,1,1,2,2,3,3,4,4,5,5],"right_children":[2,4,6,8,10,12,-1,-1,-1,-1,-1,-1,-1],"split_conditions":[1E0,3.634612E-2,3.4158415E-1,3.5148516E-1,4.3028615E-2,3.2829016E-2,-2.7934864E-2,-3.2863505E-2,9.453889E-3,6.564364E-2,-1.1092658E-2,3.3009764E-2,4.74184E-3],"split_indices":[8,2,3,3,2,2,0,0,0,0,0,0,0],"split_type":[0,0,0,0,0,0,0,0,0,0,0,0,0],"sum_hessian":[6.0117172E1,3.003737E1,3.00798E1,9.768089E0,2.0269281E1,2.8893908E1,1.1858933E0,8.523521E0,1.2445673E0,2.1509206E0,1.8118362E1,7.2467732E0,2.1647135E1],"tree_param":{"num_deleted":"0","num_feature":"38","num_nodes":"13","size_leaf_vector":"1"}},{"base_weights":[7.2885156E-3,-7.0901865E-1,6.3838035E-2,-4.2288575E-2,-7.237663E-3,1.5230292E-2,4.465638E-2,-2.6303243E-3,3.3312153E-2],"categories":[],"categories_nodes":[],"categories_segments":[],"categories_sizes":[],"default_left":[0,0,0,0,0,0,0,0,0],"id":44,"left_children":[1,3,5,-1,-1,7,-1,-1,-1],"loss_changes":[2.5141675E0,2.280786E-1,2.30051E0,0E0,0E0,2.4748921E0,0E0,0E0,0E0],"parents":[2147483647,0,0,1,1,2,2,5,5],"right_children":[2,4,6,-1,-1,8,-1,-1,-1],"split_conditions":[1.3333334E-1,6.217806E-2,1E0,-4.2288575E-2,-7.237663E-3,1E0,4.465638E-2,-2.6303243E-3,3.3312153E-2],"split_indices":[4,2,26,0,0,25,0,0,0],"split_type":[0,0,0,0,0,0,0,0,0],"sum_hessian":[5.9950356E1,3.5423057E0,5.640805E1,2.4497144E0,1.0925914E0,5.424681E1,2.1612413E0,4.9960068E1,4.2867417E0],"tree_param":{"num_deleted":"0","num_feature":"38","num_nodes":"9","size_leaf_vector":"1"}},{"base_weights":[7.351136E-3,-6.964425E-1,6.2047783E-2,-4.1608755E-2,-6.291214E-3,1.5040566E-2,4.3441314E-2,-2.5032954E-3,3.203853E-2],"categories":[],"categories_nodes":[],"categories_segments":[],"categories_sizes":[],"default_left":[0,0,0,0,0,0,0,0,0],"id":45,"left_children":[1,3,5,-1,-1,7,-1,-1,-1],"loss_changes":[2.3838003E0,2.4122143E-1,2.1613564E0,0E0,0E0,2.280739E0,0E0,0E0,0E0],"parents":[2147483647,0,0,1,1,2,2,5,5],"right_children":[2,4,6,-1,-1,8,-1,-1,-1],"split_conditions":[1.3333334E-1,1E0,1E0,-4.1608755E-2,-6.291214E-3,1E0,4.3441314E-2,-2.5032954E-3,3.203853E-2],"split_indices":[4,22,26,0,0,25,0,0,0],"split_type":[0,0,0,0,0,0,0,0,0],"sum_hessian":[5.9802135E1,3.4664E0,5.6335735E1,2.4300022E0,1.0363976E0,5.4196594E1,2.13914E0,4.9922234E1,4.274362E0],"tree_param":{"num_deleted":"0","num_feature":"38","num_nodes":"9","size_leaf_vector":"1"}},{"base_weights":[7.4002035E-3,-5.538249E-1,7.270575E-2,-7.689216E-1,6.7787217E-3,2.0444058E-1,-2.2691232E-1,-4.440886E-2,-8.758961E-3,-1.2667069E-2,1.7377125E-2,-2.8005013E-2,1.6646257E-2],"categories":[],"categories_nodes":[],"categories_segments":[],"categories_sizes":[],"default_left":[0,0,0,0,0,0,0,0,0,0,0,0,0],"id":46,"left_children":[1,3,5,7,-1,9,11,-1,-1,-1,-1,-1,-1],"loss_changes":[2.2633212E0,1.0589633E0,2.2257822E0,2.0248795E-1,0E0,2.6350083E0,3.4203506E0,0E0,0E0,0E0,0E0,0E0,0E0],"parents":[2147483647,0,0,1,1,2,2,3,3,5,5,6,6],"right_children":[2,4,6,8,-1,10,12,-1,-1,-1,-1,-1,-1],"split_conditions":[1.5E-1,2.0792079E-1,1E0,1E0,6.7787217E-3,2.749363E-2,4.9493544E-2,-4.440886E-2,-8.758961E-3,-1.2667069E-2,1.7377125E-2,-2.8005013E-2,1.6646257E-2],"split_indices":[4,3,28,34,0,2,1,0,0,0,0,0,0],"split_type":[0,0,0,0,0,0,0,0,0,0,0,0,0],"sum_hessian":[5.965451E1,5.4382834E0,5.4216225E1,4.057095E0,1.3811882E0,3.787928E1,1.6336945E1,2.9655547E0,1.0915405E0,8.837578E0,2.9041704E1,1.0241332E1,6.0956116E0],"tree_param":{"num_deleted":"0","num_feature":"38","num_nodes":"13","size_leaf_vector":"1"}},{"base_weights":[6.0941353E-3,6.068472E-1,-5.3556643E-2,7.854083E-1,-1.8598918E-3,-1.0835894E-1,3.7434515E-2,8.089679E-3,4.981388E-2,-1.5399483E-3,-2.500982E-2],"categories":[],"categories_nodes":[],"categories_segments":[],"categories_sizes":[],"default_left":[0,0,0,0,0,0,0,0,0,0,0],"id":47,"left_children":[1,3,5,7,-1,9,-1,-1,-1,-1,-1],"loss_changes":[2.1980624E0,6.662648E-1,2.5383878E0,4.1508222E-1,0E0,1.6011178E0,0E0,0E0,0E0,0E0,0E0],"parents":[2147483647,0,0,1,1,2,2,3,3,5,5],"right_children":[2,4,6,8,-1,10,-1,-1,-1,-1,-1],"split_conditions":[1E0,1E0,1E0,4.2772792E-2,-1.8598918E-3,7.781672E-2,3.7434515E-2,8.089679E-3,4.981388E-2,-1.5399483E-3,-2.500982E-2],"split_indices":[15,23,37,1,0,1,0,0,0,0,0],"split_type":[0,0,0,0,0,0,0,0,0,0,0],"sum_hessian":[5.943081E1,4.539491E0,5.489132E1,3.3822672E0,1.157224E0,5.219103E1,2.700291E0,1.3012583E0,2.081009E0,4.4467724E1,7.723303E0],"tree_param":{"num_deleted":"0","num_feature":"38","num_nodes":"11","size_leaf_vector":"1"}},{"base_weights":[6.924335E-3,-6.743383E-1,5.8575403E-2,-4.087087E-2,-5.8051925E-3,1.4613086E-2,4.1049898E-2,2.8407592E-2,-2.1977199E-3],"categories":[],"categories_nodes":[],"categories_segments":[],"categories_sizes":[],"default_left":[0,0,0,0,0,0,0,0,0],"id":48,"left_children":[1,3,5,-1,-1,7,-1,-1,-1],"loss_changes":[2.162361E0,2.5106215E-1,1.8984432E0,0E0,0E0,1.8050693E0,0E0,0E0,0E0],"parents":[2147483647,0,0,1,1,2,2,5,5],"right_children":[2,4,6,-1,-1,8,-1,-1,-1],"split_conditions":[1.3333334E-1,1E0,1E0,-4.087087E-2,-5.8051925E-3,1E0,4.1049898E-2,2.8407592E-2,-2.1977199E-3],"split_indices":[4,28,26,0,0,15,0,0,0],"split_type":[0,0,0,0,0,0,0,0,0],"sum_hessian":[5.9329227E1,3.3315394E0,5.599769E1,2.2822845E0,1.0492551E0,5.3908424E1,2.0892658E0,4.3255506E0,4.958287E1],"tree_param":{"num_deleted":"0","num_feature":"38","num_nodes":"9","size_leaf_vector":"1"}},{"base_weights":[6.929889E-3,-6.6236925E-1,5.6930568E-2,-4.0385507E-2,-5.1360386E-3,-2.7646118E-1,1.4742996E-1,8.610916E-3,-4.006022E-2,1.1956968E-2,-2.2285791E-2],"categories":[],"categories_nodes":[],"categories_segments":[],"categories_sizes":[],"default_left":[0,0,0,0,0,0,0,0,0,0,0],"id":49,"left_children":[1,3,5,-1,-1,7,9,-1,-1,-1,-1],"loss_changes":[2.051365E0,2.636876E-1,1.757816E0,0E0,0E0,3.0804787E0,2.576848E0,0E0,0E0,0E0,0E0],"parents":[2147483647,0,0,1,1,2,2,5,5,6,6],"right_children":[2,4,6,-1,-1,8,10,-1,-1,-1,-1],"split_conditions":[1.3333334E-1,6.217806E-2,4.25E-1,-4.0385507E-2,-5.1360386E-3,1E0,9.749892E-2,8.610916E-3,-4.006022E-2,1.1956968E-2,-2.2285791E-2],"split_indices":[4,2,0,0,0,28,1,0,0,0,0],"split_type":[0,0,0,0,0,0,0,0,0,0,0],"sum_hessian":[5.917126E1,3.261831E0,5.590943E1,2.2375052E0,1.024326E0,1.1497782E1,4.4411648E1,6.5602617E0,4.93752E0,3.898136E1,5.430286E0],"tree_param":{"num_deleted":"0","num_feature":"38","num_nodes":"11","size_leaf_vector":"1"}},{"base_weights":[5.068773E-3,3.8710013E-1,-7.869335E-2,6.723849E-1,-2.5305894E-1,-1.2154917E-1,2.9384727E-2,4.847912E-2,-2.3552597E-2,-3.6504295E-2,2.609904E-2,-1.974637E-3,-2.4401328E-2],"categories":[],"categories_nodes":[],"categories_segments":[],"categories_sizes":[],"default_left":[0,0,0,0,0,0,0,0,0,0,0,0,0],"id":50,"left_children":[1,3,5,7,9,11,-1,-1,-1,-1,-1,-1,-1],"loss_changes":[1.9543891E0,2.175532E0,1.5034323E0,3.1308694E0,1.9011931E0,1.4224076E0,0E0,0E0,0E0,0E0,0E0,0E0,0E0],"parents":[2147483647,0,0,1,1,2,2,3,3,4,4,5,5],"right_children":[2,4,6,8,10,12,-1,-1,-1,-1,-1,-1,-1],"split_conditions":[1E0,1E0,1E0,1E0,4.1666666E-1,7.58965E-2,2.9384727E-2,4.847912E-2,-2.3552597E-2,-3.6504295E-2,2.609904E-2,-1.974637E-3,-2.4401328E-2],"split_indices":[9,33,37,35,4,1,0,0,0,0,0,0,0],"split_type":[0,0,0,0,0,0,0,0,0,0,0,0,0],"sum_hessian":[5.912317E1,9.980699E0,4.914247E1,6.8691463E0,3.1115527E0,4.694125E1,2.2012205E0,5.572746E0,1.2964005E0,1.9619808E0,1.149572E0,3.925875E1,7.6825004E0],"tree_param":{"num_deleted":"0","num_feature":"38","num_nodes":"13","size_leaf_vector":"1"}},{"base_weights":[5.1205237E-3,-6.494754E-1,5.3289577E-2,-3.9750345E-2,-4.9691303E-3,1.1807309E-2,3.908942E-2,-2.3971128E-3,2.964125E-2],"categories":[],"categories_nodes":[],"categories_segments":[],"categories_sizes":[],"default_left":[0,0,0,0,0,0,0,0,0],"id":51,"left_children":[1,3,5,-1,-1,7,-1,-1,-1],"loss_changes":[1.9267085E0,2.5633144E-1,1.7078028E0,0E0,0E0,1.9298787E0,0E0,0E0,0E0],"parents":[2147483647,0,0,1,1,2,2,5,5],"right_children":[2,4,6,-1,-1,8,-1,-1,-1],"split_conditions":[1.3333334E-1,6.217806E-2,1E0,-3.9750345E-2,-4.9691303E-3,1E0,3.908942E-2,-2.3971128E-3,2.964125E-2],"split_indices":[4,2,26,0,0,25,0,0,0],"split_type":[0,0,0,0,0,0,0,0,0],"sum_hessian":[5.9007046E1,3.1888433E0,5.5818203E1,2.1696274E0,1.0192157E0,5.377249E1,2.0457122E0,4.9590305E1,4.182185E0],"tree_param":{"num_deleted":"0","num_feature":"38","num_nodes":"9","size_leaf_vector":"1"}},{"base_weights":[5.2266824E-3,-6.379819E-1,5.1870503E-2,-3.933765E-2,-4.3998617E-3,1.1727964E-2,3.808626E-2,-2.2812083E-3,2.8528055E-2],"categories":[],"categories_nodes":[],"categories_segments":[],"categories_sizes":[],"default_left":[0,0,0,0,0,0,0,0,0],"id":52,"left_children":[1,3,5,-1,-1,7,-1,-1,-1],"loss_changes":[1.829245E0,2.6813102E-1,1.6080425E0,0E0,0E0,1.7799389E0,0E0,0E0,0E0],"parents":[2147483647,0,0,1,1,2,2,5,5],"right_children":[2,4,6,-1,-1,8,-1,-1,-1],"split_conditions":[1.3333334E-1,1E0,1E0,-3.933765E-2,-4.3998617E-3,1E0,3.808626E-2,-2.2812083E-3,2.8528055E-2],"split_indices":[4,28,26,0,0,25,0,0,0],"split_type":[0,0,0,0,0,0,0,0,0],"sum_hessian":[5.8868355E1,3.123142E0,5.5745213E1,2.1193554E0,1.0037866E0,5.3723644E1,2.0215697E0,4.9556137E1,4.167507E0],"tree_param":{"num_deleted":"0","num_feature":"38","num_nodes":"9","size_leaf_vector":"1"}},{"base_weights":[5.3120097E-3,-1.6973785E-1,1.7788175E-1,-5.1093477E-1,7.3561254E-3,7.967478E-2,5.9591925E-1,6.327723E-3,-3.1355873E-2,6.2711075E-2,-1.0314131E-2,1.459745E-2,-7.818541E-3,4.3562908E-2,2.4310208E-4],"categories":[],"categories_nodes":[],"categories_segments":[],"categories_sizes":[],"default_left":[0,0,0,0,0,0,0,0,0,0,0,0,0,0,0],"id":53,"left_children":[1,3,5,7,9,11,13,-1,-1,-1,-1,-1,-1,-1,-1],"loss_changes":[1.8346137E0,1.8264415E0,1.207451E0,8.43806E-1,5.81105E0,1.3437592E0,9.169855E-1,0E0,0E0,0E0,0E0,0E0,0E0,0E0,0E0],"parents":[2147483647,0,0,1,1,2,2,3,3,4,4,5,5,6,6],"right_children":[2,4,6,8,10,12,14,-1,-1,-1,-1,-1,-1,-1,-1],"split_conditions":[1E0,3.634612E-2,4.6666667E-1,7.6118805E-3,4.3028615E-2,3E-1,6.25E-1,6.327723E-3,-3.1355873E-2,6.2711075E-2,-1.0314131E-2,1.459745E-2,-7.818541E-3,4.3562908E-2,2.4310208E-4],"split_indices":[8,2,4,2,2,4,0,0,0,0,0,0,0,0,0],"split_type":[0,0,0,0,0,0,0,0,0,0,0,0,0,0,0],"sum_hessian":[5.8732594E1,2.9164927E1,2.9567665E1,9.3211975E0,1.9843729E1,2.490701E1,4.6606574E0,1.4231522E0,7.8980455E0,2.1902072E0,1.7653522E1,1.2989133E1,1.1917875E1,2.8561E0,1.8045571E0],"tree_param":{"num_deleted":"0","num_feature":"38","num_nodes":"15","size_leaf_vector":"1"}},{"base_weights":[6.297148E-3,-1.299385E-1,2.1495807E-1,6.935898E-2,-5.262354E-1,5.6208605E-1,-1.974776E-1,-4.0495697E-2,9.891323E-3,1.1022895E-3,-5.2027475E-2,-9.324828E-3,4.1109756E-2,1.045448E-2,-3.482157E-2],"categories":[],"categories_nodes":[],"categories_segments":[],"categories_sizes":[],"default_left":[0,0,0,0,0,0,0,0,0,0,0,0,0,0,0],"id":54,"left_children":[1,3,5,7,9,11,13,-1,-1,-1,-1,-1,-1,-1,-1],"loss_changes":[1.7209755E0,2.9315686E0,3.5330307E0,3.0150378E0,3.5145316E0,2.7310772E0,2.5116649E0,0E0,0E0,0E0,0E0,0E0,0E0,0E0,0E0],"parents":[2147483647,0,0,1,1,2,2,3,3,4,4,5,5,6,6],"right_children":[2,4,6,8,10,12,14,-1,-1,-1,-1,-1,-1,-1,-1],"split_conditions":[4.9493544E-2,1E0,7.58965E-2,1.5E-1,2.9331286E-2,5E-1,5.75E-1,-4.0495697E-2,9.891323E-3,1.1022895E-3,-5.2027475E-2,-9.324828E-3,4.1109756E-2,1.045448E-2,-3.482157E-2],"split_indices":[1,28,1,4,1,0,0,0,0,0,0,0,0,0,0],"split_type":[0,0,0,0,0,0,0,0,0,0,0,0,0,0,0],"sum_hessian":[5.855749E1,3.5655277E1,2.2902214E1,2.4273252E1,1.1382024E1,1.2238658E1,1.0663557E1,2.4181592E0,2.1855093E1,5.972362E0,5.4096613E0,3.2289336E0,9.009725E0,6.1958656E0,4.4676914E0],"tree_param":{"num_deleted":"0","num_feature":"38","num_nodes":"15","size_leaf_vector":"1"}},{"base_weights":[4.6344893E-3,3.6485794E-1,-7.394267E-2,6.3008296E-1,-2.3538195E-1,3.772932E-2,-4.07989E-1,4.5978393E-2,-2.3098327E-2,-3.4885917E-2,2.5395269E-2,-4.2233557E-2,5.3326106E-3,8.957488E-4,-3.3172596E-2],"categories":[],"categories_nodes":[],"categories_segments":[],"categories_sizes":[],"default_left":[0,0,0,0,0,0,0,0,0,0,0,0,0,0,0],"id":55,"left_children":[1,3,5,7,9,11,13,-1,-1,-1,-1,-1,-1,-1,-1],"loss_changes":[1.7079308E0,1.868131E0,1.865034E0,2.8793657E0,1.7422502E0,2.4057736E0,1.3727317E0,0E0,0E0,0E0,0E0,0E0,0E0,0E0,0E0],"parents":[2147483647,0,0,1,1,2,2,3,3,4,4,5,5,6,6],"right_children":[2,4,6,8,10,12,14,-1,-1,-1,-1,-1,-1,-1,-1],"split_conditions":[1E0,1E0,1E0,1E0,4.1666666E-1,2.5E-1,2.1666667E-1,4.5978393E-2,-2.3098327E-2,-3.4885917E-2,2.5395269E-2,-4.2233557E-2,5.3326106E-3,8.957488E-4,-3.3172596E-2],"split_indices":[9,33,23,35,4,0,4,0,0,0,0,0,0,0,0],"split_type":[0,0,0,0,0,0,0,0,0,0,0,0,0,0,0],"sum_hessian":[5.8386406E1,9.802987E0,4.8583416E1,6.764343E0,3.038645E0,3.7075947E1,1.1507469E1,5.471799E0,1.2925436E0,1.9111727E0,1.1274722E0,1.8706923E0,3.5205257E1,4.6630964E0,6.8443727E0],"tree_param":{"num_deleted":"0","num_feature":"38","num_nodes":"15","size_leaf_vector":"1"}},{"base_weights":[3.4454318E-3,6.214591E-1,-4.0573142E-2,4.440944E-2,3.9990167E-3,-4.0029508E-1,5.6138214E-2,-1.3113483E-3,-3.900096E-2,-6.3487138E-3,1.1895845E-2],"categories":[],"categories_nodes":[],"categories_segments":[],"categories_sizes":[],"default_left":[0,0,0,0,0,0,0,0,0,0,0],"id":56,"left_children":[1,3,5,-1,-1,7,9,-1,-1,-1,-1],"loss_changes":[1.6384239E0,5.0727785E-1,1.9809682E0,0E0,0E0,1.6913402E0,1.5362258E0,0E0,0E0,0E0,0E0],"parents":[2147483647,0,0,1,1,2,2,5,5,6,6],"right_children":[2,4,6,-1,-1,8,10,-1,-1,-1,-1],"split_conditions":[1E0,5.75E-1,4.25E-1,4.440944E-2,3.9990167E-3,1E0,3.7972253E-2,-1.3113483E-3,-3.900096E-2,-6.3487138E-3,1.1895845E-2],"split_indices":[17,0,0,0,0,28,1,0,0,0,0],"split_type":[0,0,0,0,0,0,0,0,0,0,0],"sum_hessian":[5.8300274E1,3.0041654E0,5.529611E1,1.5837274E0,1.4204382E0,1.1051293E1,4.4244816E1,6.1056523E0,4.9456406E0,2.2191736E1,2.205308E1],"tree_param":{"num_deleted":"0","num_feature":"38","num_nodes":"11","size_leaf_vector":"1"}},{"base_weights":[3.483144E-3,-6.1654377E-1,4.749679E-2,-3.8017794E-2,-4.8897183E-3,6.072238E-1,4.7685495E-3,4.14741E-2,5.1427498E-3,-2.1883508E-3,3.578522E-2],"categories":[],"categories_nodes":[],"categories_segments":[],"categories_sizes":[],"default_left":[0,0,0,0,0,0,0,0,0,0,0],"id":57,"left_children":[1,3,5,-1,-1,7,9,-1,-1,-1,-1],"loss_changes":[1.64301E0,2.2337794E-1,1.3398124E0,0E0,0E0,3.6015737E-1,1.865936E0,0E0,0E0,0E0,0E0],"parents":[2147483647,0,0,1,1,2,2,5,5,6,6],"right_children":[2,4,6,-1,-1,8,10,-1,-1,-1,-1],"split_conditions":[1.3333334E-1,1.7326732E-1,1E0,-3.8017794E-2,-4.8897183E-3,1E0,1E0,4.14741E-2,5.1427498E-3,-2.1883508E-3,3.578522E-2],"split_indices":[4,3,17,0,0,13,37,0,0,0,0],"split_type":[0,0,0,0,0,0,0,0,0,0,0],"sum_hessian":[5.813328E1,2.990973E0,5.5142307E1,1.9771131E0,1.01386E0,2.9738941E0,5.2168415E1,1.6168216E0,1.3570726E0,4.971295E1,2.4554636E0],"tree_param":{"num_deleted":"0","num_feature":"38","num_nodes":"11","size_leaf_vector":"1"}},{"base_weights":[3.949332E-3,-1.5978031E-1,1.6473573E-1,-8.020269E-2,-4.388119E-2,2.1236596E-1,-2.7742023E-2,-2.7168725E-2,1.2118601E-3,4.6764902E-4,2.3419723E-2],"categories":[],"categories_nodes":[],"categories_segments":[],"categories_sizes":[],"default_left":[0,0,0,0,0,0,0,0,0,0,0],"id":58,"left_children":[1,3,5,7,-1,9,-1,-1,-1,-1,-1],"loss_changes":[1.57914E0,1.6280776E0,1.1546912E0,1.361161E0,0E0,1.508026E0,0E0,0E0,0E0,0E0,0E0],"parents":[2147483647,0,0,1,1,2,2,3,3,5,5],"right_children":[2,4,6,8,-1,10,-1,-1,-1,-1,-1],"split_conditions":[1E0,3.1666666E-1,3.4158415E-1,1.5E-1,-4.388119E-2,1.3861386E-1,-2.7742023E-2,-2.7168725E-2,1.2118601E-3,4.6764902E-4,2.3419723E-2],"split_indices":[8,4,3,4,0,3,0,0,0,0,0],"split_type":[0,0,0,0,0,0,0,0,0,0,0],"sum_hessian":[5.7985336E1,2.8732817E1,2.9252522E1,2.6866245E1,1.8665711E0,2.8097559E1,1.1549612E0,4.170057E0,2.2696188E1,1.624942E1,1.184814E1],"tree_param":{"num_deleted":"0","num_feature":"38","num_nodes":"11","size_leaf_vector":"1"}},{"base_weights":[2.4752377E-3,-5.963047E-1,4.3942265E-2,-3.7071854E-2,-4.947991E-3,6.6277613E-3,3.5705656E-2,-1.7723367E-2,4.569191E-3],"categories":[],"categories_nodes":[],"categories_segments":[],"categories_sizes":[],"default_left":[0,0,0,0,0,0,0,0,0],"id":59,"left_children":[1,3,5,-1,-1,7,-1,-1,-1],"loss_changes":[1.4874855E0,2.067138E-1,1.3949653E0,0E0,0E0,1.6859595E0,0E0,0E0,0E0],"parents":[2147483647,0,0,1,1,2,2,5,5],"right_children":[2,4,6,-1,-1,8,-1,-1,-1],"split_conditions":[1.3333334E-1,6.1113164E-2,1E0,-3.7071854E-2,-4.947991E-3,2.6177105E-2,3.5705656E-2,-1.7723367E-2,4.569191E-3],"split_indices":[4,2,26,0,0,2,0,0,0],"split_type":[0,0,0,0,0,0,0,0,0],"sum_hessian":[5.785239E1,2.8803399E0,5.497205E1,1.8497621E0,1.0305779E0,5.3029316E1,1.9427341E0,9.475906E0,4.355341E1],"tree_param":{"num_deleted":"0","num_feature":"38","num_nodes":"9","size_leaf_vector":"1"}},{"base_weights":[2.0026164E-3,-3.92017E-2,5.880151E-1,-1.1800222E-1,3.4799615E-1,4.0507045E-2,4.7614956E-3,-3.723487E-2,-4.3849202E-4,3.7774283E-2,-3.1133253E-2],"categories":[],"categories_nodes":[],"categories_segments":[],"categories_sizes":[],"default_left":[0,0,0,0,0,0,0,0,0,0,0],"id":60,"left_children":[1,3,5,7,9,-1,-1,-1,-1,-1,-1],"loss_changes":[1.4414281E0,1.7442001E0,3.5209155E-1,3.219588E0,4.304072E0,0E0,0E0,0E0,0E0,0E0,0E0],"parents":[2147483647,0,0,1,1,2,2,3,3,4,4],"right_children":[2,4,6,8,10,-1,-1,-1,-1,-1,-1],"split_conditions":[1E0,1.509431E-1,1E0,7.920792E-2,3.5E-1,4.0507045E-2,4.7614956E-3,-3.723487E-2,-4.3849202E-4,3.7774283E-2,-3.1133253E-2],"split_indices":[18,2,13,3,4,0,0,0,0,0,0],"split_type":[0,0,0,0,0,0,0,0,0,0,0],"sum_hessian":[5.77411E1,5.4819668E1,2.921433E0,4.6127316E1,8.692354E0,1.5698223E0,1.3516108E0,5.9831047E0,4.014421E1,6.2783456E0,2.4140084E0],"tree_param":{"num_deleted":"0","num_feature":"38","num_nodes":"11","size_leaf_vector":"1"}},{"base_weights":[2.1255969E-3,-1.5413228E-1,1.5482543E-1,-4.8129755E-1,1.2172243E-2,2.009312E-1,-2.6967674E-2,-3.03205E-2,1.2435778E-2,6.006316E-2,-9.931794E-3,3.0110547E-2,2.1374049E-3],"categories":[],"categories_nodes":[],"categories_segments":[],"categories_sizes":[],"default_left":[0,0,0,0,0,0,0,0,0,0,0,0,0],"id":61,"left_children":[1,3,5,7,9,11,-1,-1,-1,-1,-1,-1,-1],"loss_changes":[1.4220012E0,1.6088483E0,1.0728434E0,1.0599234E0,5.3794074E0,1.814172E0,0E0,0E0,0E0,0E0,0E0,0E0,0E0],"parents":[2147483647,0,0,1,1,2,2,3,3,4,4,5,5],"right_children":[2,4,6,8,10,12,-1,-1,-1,-1,-1,-1,-1],"split_conditions":[1E0,3.634612E-2,3.4158415E-1,3.5148516E-1,4.3028615E-2,3.2829016E-2,-2.6967674E-2,-3.03205E-2,1.2435778E-2,6.006316E-2,-9.931794E-3,3.0110547E-2,2.1374049E-3],"split_indices":[8,2,3,3,2,2,0,0,0,0,0,0,0],"split_type":[0,0,0,0,0,0,0,0,0,0,0,0,0],"sum_hessian":[5.7596195E1,2.8461815E1,2.913438E1,8.953609E0,1.9508207E1,2.7986153E1,1.1482275E0,7.788161E0,1.1654482E0,2.2301846E0,1.727802E1,7.1191664E0,2.0866987E1],"tree_param":{"num_deleted":"0","num_feature":"38","num_nodes":"13","size_leaf_vector":"1"}},{"base_weights":[2.5824686E-3,-5.79524E-1,4.21867E-2,-3.6387052E-2,-4.2955414E-3,5.853512E-3,3.4907028E-2,4.5521418E-3,-1.83538E-2],"categories":[],"categories_nodes":[],"categories_segments":[],"categories_sizes":[],"default_left":[0,0,0,0,0,0,0,0,0],"id":62,"left_children":[1,3,5,-1,-1,7,-1,-1,-1],"loss_changes":[1.3719115E0,2.1484625E-1,1.3223882E0,0E0,0E0,1.7408679E0,0E0,0E0,0E0],"parents":[2147483647,0,0,1,1,2,2,5,5],"right_children":[2,4,6,-1,-1,8,-1,-1,-1],"split_conditions":[1.3333334E-1,6.1113164E-2,1E0,-3.6387052E-2,-4.2955414E-3,7.781672E-2,3.4907028E-2,4.5521418E-3,-1.83538E-2],"split_indices":[4,2,26,0,0,1,0,0,0],"split_type":[0,0,0,0,0,0,0,0,0],"sum_hessian":[5.7448444E1,2.79114E0,5.4657303E1,1.7818038E0,1.0093364E0,5.2744705E1,1.9125977E0,4.3551895E1,9.192809E0],"tree_param":{"num_deleted":"0","num_feature":"38","num_nodes":"9","size_leaf_vector":"1"}},{"base_weights":[2.1076254E-3,-6.811656E-2,3.2658967E-1,3.9096072E-2,-3.8907102E-1,5.2511454E-1,-1.971168E-2,-4.0838018E-2,5.2206484E-3,-2.6802152E-2,1.3765943E-2,3.3476513E-2,-1.4210216E-2],"categories":[],"categories_nodes":[],"categories_segments":[],"categories_sizes":[],"default_left":[0,0,0,0,0,0,0,0,0,0,0,0,0],"id":63,"left_children":[1,3,5,7,9,11,-1,-1,-1,-1,-1,-1,-1],"loss_changes":[1.353505E0,1.6963724E0,1.7191612E0,2.1833546E0,1.3510654E0,1.2087522E0,0E0,0E0,0E0,0E0,0E0,0E0,0E0],"parents":[2147483647,0,0,1,1,2,2,3,3,4,4,5,5],"right_children":[2,4,6,8,10,12,-1,-1,-1,-1,-1,-1,-1],"split_conditions":[1E0,1E0,2.6732674E-1,2.5E-1,4.1666666E-1,1E0,-1.971168E-2,-4.0838018E-2,5.2206484E-3,-2.6802152E-2,1.3765943E-2,3.3476513E-2,-1.4210216E-2],"split_indices":[10,23,3,0,4,35,0,0,0,0,0,0,0],"split_type":[0,0,0,0,0,0,0,0,0,0,0,0,0],"sum_hessian":[5.7423176E1,4.785624E1,9.566938E0,3.6531372E1,1.1324865E1,7.7139225E0,1.8530157E0,1.7745544E0,3.4756817E1,9.43164E0,1.8932263E0,6.6924405E0,1.0214822E0],"tree_param":{"num_deleted":"0","num_feature":"38","num_nodes":"13","size_leaf_vector":"1"}},{"base_weights":[1.128829E-3,-6.768123E-2,3.2373866E-1,-4.9752787E-1,4.641398E-2,6.65527E-1,-2.6062086E-2,-3.1806786E-2,8.695109E-3,6.3696736E-3,-3.4047686E-2,4.535472E-2,-1.7951518E-2],"categories":[],"categories_nodes":[],"categories_segments":[],"categories_sizes":[],"default_left":[0,0,0,0,0,0,0,0,0,0,0,0,0],"id":64,"left_children":[1,3,5,7,9,11,-1,-1,-1,-1,-1,-1,-1],"loss_changes":[1.3168954E0,2.4216928E0,3.358585E0,1.0732961E0,2.4171214E0,2.2720194E0,0E0,0E0,0E0,0E0,0E0,0E0,0E0],"parents":[2147483647,0,0,1,1,2,2,3,3,4,4,5,5],"right_children":[2,4,6,8,10,12,-1,-1,-1,-1,-1,-1,-1],"split_conditions":[1.509431E-1,4.25E-1,3.5E-1,1E0,7.58965E-2,2.4151506E-1,-2.6062086E-2,-3.1806786E-2,8.695109E-3,6.3696736E-3,-3.4047686E-2,4.535472E-2,-1.7951518E-2],"split_indices":[2,0,4,29,1,1,0,0,0,0,0,0,0],"split_type":[0,0,0,0,0,0,0,0,0,0,0,0,0],"sum_hessian":[5.7335773E1,4.7907665E1,9.428109E0,9.344018E0,3.856365E1,6.8640337E0,2.5640752E0,7.7887087E0,1.5553099E0,3.54426E1,3.121048E0,5.6472E0,1.2168338E0],"tree_param":{"num_deleted":"0","num_feature":"38","num_nodes":"13","size_leaf_vector":"1"}},{"base_weights":[1.861425E-4,5.6440943E-1,-3.9000347E-2,4.2225104E-2,1.3827396E-3,-3.669555E-1,4.7085166E-2,-2.8842807E-2,2.3940368E-2,-1.2109822E-2,7.3556723E-3],"categories":[],"categories_nodes":[],"categories_segments":[],"categories_sizes":[],"default_left":[0,0,0,0,0,0,0,0,0,0,0],"id":65,"left_children":[1,3,5,-1,-1,7,9,-1,-1,-1,-1],"loss_changes":[1.310767E0,5.55457E-1,1.5824285E0,0E0,0E0,2.3426528E0,1.331928E0,0E0,0E0,0E0,0E0],"parents":[2147483647,0,0,1,1,2,2,5,5,6,6],"right_children":[2,4,6,-1,-1,8,10,-1,-1,-1,-1],"split_conditions":[1E0,5.75E-1,4.25E-1,4.2225104E-2,1.3827396E-3,1.509431E-1,3.051389E-2,-2.8842807E-2,2.3940368E-2,-1.2109822E-2,7.3556723E-3],"split_indices":[17,0,0,0,0,2,2,0,0,0,0],"split_type":[0,0,0,0,0,0,0,0,0,0,0],"sum_hessian":[5.7288506E1,2.849991E0,5.4438515E1,1.495994E0,1.353997E0,1.0640254E1,4.379826E1,8.779348E0,1.860905E0,1.0888232E1,3.291003E1],"tree_param":{"num_deleted":"0","num_feature":"38","num_nodes":"11","size_leaf_vector":"1"}},{"base_weights":[7.3309266E-4,-2.8551916E-2,3.934521E-2,4.52281E-3,3.369622E-2,4.411139E-3,-1.8092064E-2],"categories":[],"categories_nodes":[],"categories_segments":[],"categories_sizes":[],"default_left":[0,0,0,0,0,0,0],"id":66,"left_children":[1,-1,3,5,-1,-1,-1],"loss_changes":[1.3059464E0,0E0,1.2210162E0,1.6730578E0,0E0,0E0,0E0],"parents":[2147483647,0,0,2,2,3,3],"right_children":[2,-1,4,6,-1,-1,-1],"split_conditions":[1.3333334E-1,-2.8551916E-2,1E0,7.781672E-2,3.369622E-2,4.411139E-3,-1.8092064E-2],"split_indices":[4,0,26,1,0,0,0],"split_type":[0,0,0,0,0,0,0],"sum_hessian":[5.7135662E1,2.742051E0,5.4393612E1,5.2518784E1,1.8748298E0,4.3369686E1,9.1490965E0],"tree_param":{"num_deleted":"0","num_feature":"38","num_nodes":"7","size_leaf_vector":"1"}},{"base_weights":[5.3903117E-4,-1.1863943E-1,1.806762E-1,6.172818E-2,-4.869162E-1,5.088221E-1,-2.1054699E-1,-3.8316987E-2,8.664913E-3,2.9370352E-3,-5.078305E-2,-9.358418E-3,3.751934E-2,8.6611435E-3,-3.394294E-2],"categories":[],"categories_nodes":[],"categories_segments":[],"categories_sizes":[],"default_left":[0,0,0,0,0,0,0,0,0,0,0,0,0,0,0],"id":67,"left_children":[1,3,5,7,9,11,13,-1,-1,-1,-1,-1,-1,-1,-1],"loss_changes":[1.2687805E0,2.3928492E0,3.1279416E0,2.4207184E0,3.4659734E0,2.3411567E0,2.1738083E0,0E0,0E0,0E0,0E0,0E0,0E0,0E0,0E0],"parents":[2147483647,0,0,1,1,2,2,3,3,4,4,5,5,6,6],"right_children":[2,4,6,8,10,12,14,-1,-1,-1,-1,-1,-1,-1,-1],"split_conditions":[4.9493544E-2,1E0,7.58965E-2,1.5E-1,2.9331286E-2,5E-1,5.75E-1,-3.8316987E-2,8.664913E-3,2.9370352E-3,-5.078305E-2,-9.358418E-3,3.751934E-2,8.6611435E-3,-3.394294E-2],"split_indices":[1,28,1,4,1,0,0,0,0,0,0,0,0,0,0],"split_type":[0,0,0,0,0,0,0,0,0,0,0,0,0,0,0],"sum_hessian":[5.7101265E1,3.4570724E1,2.253054E1,2.3764288E1,1.0806435E1,1.2089581E1,1.0440959E1,2.1248758E0,2.1639412E1,5.755622E0,5.050813E0,3.172946E0,8.916635E0,6.084761E0,4.356198E0],"tree_param":{"num_deleted":"0","num_feature":"38","num_nodes":"15","size_leaf_vector":"1"}},{"base_weights":[-8.7823364E-4,4.752906E-1,-4.5643784E-2,6.7489946E-1,-4.859663E-3,-1.2273464E-1,3.4918627E-1,4.978086E-3,4.2353384E-2,-3.5554484E-2,-1.0355469E-3,3.349043E-2,-2.3365548E-2],"categories":[],"categories_nodes":[],"categories_segments":[],"categories_sizes":[],"default_left":[0,0,0,0,0,0,0,0,0,0,0,0,0],"id":68,"left_children":[1,3,5,7,-1,9,11,-1,-1,-1,-1,-1,-1],"loss_changes":[1.2565455E0,6.4447916E-1,1.6823896E0,3.0019784E-1,0E0,2.73482E0,2.6845975E0,0E0,0E0,0E0,0E0,0E0,0E0],"parents":[2147483647,0,0,1,1,2,2,3,3,5,5,6,6],"right_children":[2,4,6,8,-1,10,12,-1,-1,-1,-1,-1,-1],"split_conditions":[1E0,9.557871E-2,1.509431E-1,5.4482378E-2,-4.859663E-3,7.920792E-2,3.5E-1,4.978086E-3,4.2353384E-2,-3.5554484E-2,-1.0355469E-3,3.349043E-2,-2.3365548E-2],"split_indices":[15,1,2,2,0,3,4,0,0,0,0,0,0],"split_type":[0,0,0,0,0,0,0,0,0,0,0,0,0],"sum_hessian":[5.6930832E1,4.0658E0,5.2865032E1,2.8820233E0,1.1837769E0,4.4805813E1,8.059222E0,1.0273131E0,1.8547103E0,5.7391524E0,3.9066658E1,5.9158435E0,2.1433787E0],"tree_param":{"num_deleted":"0","num_feature":"38","num_nodes":"13","size_leaf_vector":"1"}},{"base_weights":[-5.830181E-4,5.409547E-1,-3.7890587E-2,4.099388E-2,8.4445515E-4,-7.8688815E-2,2.9821409E-2,-2.2114877E-2,-3.5466996E-4],"categories":[],"categories_nodes":[],"categories_segments":[],"categories_sizes":[],"default_left":[0,0,0,0,0,0,0,0,0],"id":69,"left_children":[1,3,5,-1,-1,7,-1,-1,-1],"loss_changes":[1.1880842E0,5.40184E-1,1.4703138E0,0E0,0E0,1.3651652E0,0E0,0E0,0E0],"parents":[2147483647,0,0,1,1,2,2,5,5],"right_children":[2,4,6,-1,-1,8,-1,-1,-1],"split_conditions":[1E0,5.75E-1,1E0,4.099388E-2,8.4445515E-4,2.3251494E-2,2.9821409E-2,-2.2114877E-2,-3.5466996E-4],"split_indices":[17,0,37,0,0,2,0,0,0],"split_type":[0,0,0,0,0,0,0,0,0],"sum_hessian":[5.6791462E1,2.7902176E0,5.4001247E1,1.4526296E0,1.3375881E0,5.156089E1,2.4403553E0,7.6304913E0,4.39304E1],"tree_param":{"num_deleted":"0","num_feature":"38","num_nodes":"9","size_leaf_vector":"1"}},{"base_weights":[2.9612175E-4,-2.7417008E-2,3.6372636E-2,-2.1852618E-1,1.1544072E-1,1.9709902E-2,-3.4515705E-2,4.060501E-2,-2.6347549E-3],"categories":[],"categories_nodes":[],"categories_segments":[],"categories_sizes":[],"default_left":[0,0,0,0,0,0,0,0,0],"id":70,"left_children":[1,-1,3,5,7,-1,-1,-1,-1],"loss_changes":[1.1611253E0,0E0,1.1344533E0,4.1387424E0,5.039792E0,0E0,0E0,0E0,0E0],"parents":[2147483647,0,0,2,2,3,3,4,4],"right_children":[2,-1,4,6,8,-1,-1,-1,-1],"split_conditions":[1.3333334E-1,-2.7417008E-2,2.8570784E-2,1.9250156E-2,4.1665625E-2,1.9709902E-2,-3.4515705E-2,4.060501E-2,-2.6347549E-3],"split_indices":[4,0,2,1,2,0,0,0,0],"split_type":[0,0,0,0,0,0,0,0,0],"sum_hessian":[5.6656113E1,2.6195621E0,5.403655E1,1.2375802E1,4.1660748E1,5.4553046E0,6.9204974E0,7.35515E0,3.43056E1],"tree_param":{"num_deleted":"0","num_feature":"38","num_nodes":"9","size_leaf_vector":"1"}},{"base_weights":[1.2765412E-4,-1.4616387E-1,1.4173065E-1,-6.832726E-2,-4.256441E-2,2.3723005E-1,-2.919068E-1,-1.3253708E-2,1.2368212E-2,2.0930867E-3,3.242028E-2,-5.1441617E-2,1.9734686E-2],"categories":[],"categories_nodes":[],"categories_segments":[],"categories_sizes":[],"default_left":[0,0,0,0,0,0,0,0,0,0,0,0,0],"id":71,"left_children":[1,3,5,7,-1,9,11,-1,-1,-1,-1,-1,-1],"loss_changes":[1.2142551E0,1.5242236E0,1.3027083E0,1.7458264E0,0E0,1.9779918E0,3.3528488E0,0E0,0E0,0E0,0E0,0E0,0E0],"parents":[2147483647,0,0,1,1,2,2,3,3,5,5,6,6],"right_children":[2,4,6,8,-1,10,12,-1,-1,-1,-1,-1,-1],"split_conditions":[1E0,3.1666666E-1,9.749892E-2,6.981048E-2,-4.256441E-2,4.1666666E-1,3.0001417E-1,-1.3253708E-2,1.2368212E-2,2.0930867E-3,3.242028E-2,-5.1441617E-2,1.9734686E-2],"split_indices":[8,4,1,2,0,4,2,0,0,0,0,0,0],"split_type":[0,0,0,0,0,0,0,0,0,0,0,0,0],"sum_hessian":[5.6616257E1,2.7831272E1,2.8784985E1,2.6052334E1,1.7789396E0,2.3961014E1,4.8239717E0,1.6148512E1,9.903822E0,1.6990067E1,6.9709473E0,2.0863051E0,2.7376666E0],"tree_param":{"num_deleted":"0","num_feature":"38","num_nodes":"13","size_leaf_vector":"1"}},{"base_weights":[-6.039272E-4,4.467308E-1,-4.223549E-2,6.4770234E-1,-5.549394E-3,-1.15979016E-1,3.3286417E-1,4.450955E-3,4.0820822E-2,-3.4640294E-2,-8.539734E-4,4.2886265E-2,-1.7600391E-3],"categories":[],"categories_nodes":[],"categories_segments":[],"categories_sizes":[],"default_left":[0,0,0,0,0,0,0,0,0,0,0,0,0],"id":72,"left_children":[1,3,5,7,-1,9,11,-1,-1,-1,-1,-1,-1],"loss_changes":[1.0876863E0,6.2926817E-1,1.5162325E0,2.8567636E-1,0E0,2.5772233E0,1.7755895E0,0E0,0E0,0E0,0E0,0E0,0E0],"parents":[2147483647,0,0,1,1,2,2,3,3,5,5,6,6],"right_children":[2,4,6,8,-1,10,12,-1,-1,-1,-1,-1,-1],"split_conditions":[1E0,9.557871E-2,1.509431E-1,5.4482378E-2,-5.549394E-3,7.920792E-2,8.309731E-2,4.450955E-3,4.0820822E-2,-3.4640294E-2,-8.539734E-4,4.2886265E-2,-1.7600391E-3],"split_indices":[15,1,2,2,0,3,1,0,0,0,0,0,0],"split_type":[0,0,0,0,0,0,0,0,0,0,0,0,0],"sum_hessian":[5.6391644E1,3.9728158E0,5.2418827E1,2.8018415E0,1.1709743E0,4.4383884E1,8.034942E0,1.0041876E0,1.7976539E0,5.6171255E0,3.876676E1,2.763633E0,5.2713084E0],"tree_param":{"num_deleted":"0","num_feature":"38","num_nodes":"13","size_leaf_vector":"1"}},{"base_weights":[1.9572124E-4,-1.4023544E-1,1.3574708E-1,-6.372737E-2,-4.1958764E-2,2.2778374E-1,-2.8184396E-1,-2.6092142E-2,3.3861988E-3,2.083329E-3,3.1138489E-2,-4.9853116E-2,1.9199353E-2],"categories":[],"categories_nodes":[],"categories_segments":[],"categories_sizes":[],"default_left":[0,0,0,0,0,0,0,0,0,0,0,0,0],"id":73,"left_children":[1,3,5,7,-1,9,11,-1,-1,-1,-1,-1,-1],"loss_changes":[1.1088734E0,1.4765315E0,1.2033935E0,1.6535211E0,0E0,1.800175E0,3.1448631E0,0E0,0E0,0E0,0E0,0E0,0E0],"parents":[2147483647,0,0,1,1,2,2,3,3,5,5,6,6],"right_children":[2,4,6,8,-1,10,12,-1,-1,-1,-1,-1,-1],"split_conditions":[1E0,3.1666666E-1,9.749892E-2,4.25E-1,-4.1958764E-2,4.1666666E-1,3.0001417E-1,-2.6092142E-2,3.3861988E-3,2.083329E-3,3.1138489E-2,-4.9853116E-2,1.9199353E-2],"split_indices":[8,4,1,0,0,4,2,0,0,0,0,0,0],"split_type":[0,0,0,0,0,0,0,0,0,0,0,0,0],"sum_hessian":[5.625245E1,2.7611938E1,2.8640512E1,2.5871178E1,1.7407598E0,2.3840597E1,4.7999153E0,5.106138E0,2.076504E1,1.6956291E1,6.8843055E0,2.0742931E0,2.7256224E0],"tree_param":{"num_deleted":"0","num_feature":"38","num_nodes":"13","size_leaf_vector":"1"}},{"base_weights":[-9.196176E-4,-3.196673E-2,2.9295474E-2,-3.485379E-1,3.962646E-2,2.5333667E-2,-3.492578E-2,2.0534573E-2,-6.796037E-3],"categories":[],"categories_nodes":[],"categories_segments":[],"categories_sizes":[],"default_left":[0,0,0,0,0,0,0,0,0],"id":74,"left_children":[1,3,-1,5,7,-1,-1,-1,-1],"loss_changes":[1.058764E0,1.2640657E0,0E0,3.4297404E0,3.0449E0,0E0,0E0,0E0,0E0],"parents":[2147483647,0,0,1,1,3,3,4,4],"right_children":[2,4,-1,6,8,-1,-1,-1,-1],"split_conditions":[1E0,2.6177105E-2,2.9295474E-2,8.318166E-3,5.048217E-2,2.5333667E-2,-3.492578E-2,2.0534573E-2,-6.796037E-3],"split_indices":[26,2,0,2,2,0,0,0,0],"split_type":[0,0,0,0,0,0,0,0,0],"sum_hessian":[5.6084057E1,5.416395E1,1.9201025E0,9.276549E0,4.4887405E1,2.563822E0,6.712727E0,1.3985626E1,3.0901777E1],"tree_param":{"num_deleted":"0","num_feature":"38","num_nodes":"9","size_leaf_vector":"1"}},{"base_weights":[-3.441385E-4,5.047844E-1,-3.4600712E-2,3.940282E-2,-4.4390565E-4,-3.346336E-1,4.237418E-2,-2.6864612E-2,2.284402E-2,-1.1182916E-2,6.6612847E-3],"categories":[],"categories_nodes":[],"categories_segments":[],"categories_sizes":[],"default_left":[0,0,0,0,0,0,0,0,0,0,0],"id":75,"left_children":[1,3,5,-1,-1,7,9,-1,-1,-1,-1],"loss_changes":[1.0041482E0,5.4326665E-1,1.269047E0,0E0,0E0,2.043026E0,1.0963678E0,0E0,0E0,0E0,0E0],"parents":[2147483647,0,0,1,1,2,2,5,5,6,6],"right_children":[2,4,6,-1,-1,8,10,-1,-1,-1,-1],"split_conditions":[1E0,5.75E-1,4.25E-1,3.940282E-2,-4.4390565E-4,1.509431E-1,3.051389E-2,-2.6864612E-2,2.284402E-2,-1.1182916E-2,6.6612847E-3],"split_indices":[17,0,0,0,0,2,2,0,0,0,0],"split_type":[0,0,0,0,0,0,0,0,0,0,0],"sum_hessian":[5.602057E1,2.6855485E0,5.3335022E1,1.3866532E0,1.2988952E0,1.0206153E1,4.312887E1,8.381375E0,1.8247775E0,1.0607133E1,3.2521736E1],"tree_param":{"num_deleted":"0","num_feature":"38","num_nodes":"11","size_leaf_vector":"1"}},{"base_weights":[1.8379049E-4,-2.6641188E-2,3.4926865E-2,2.8795007E-1,-4.2463504E-2,-7.2092586E-3,3.5055026E-2,9.154573E-3,-1.3600125E-2],"categories":[],"categories_nodes":[],"categories_segments":[],"categories_sizes":[],"default_left":[0,0,0,0,0,0,0,0,0],"id":76,"left_children":[1,-1,3,5,7,-1,-1,-1,-1],"loss_changes":[1.0719043E0,0E0,1.0762177E0,2.3962379E0,2.2491992E0,0E0,0E0,0E0,0E0],"parents":[2147483647,0,0,2,2,3,3,4,4],"right_children":[2,-1,4,6,8,-1,-1,-1,-1],"split_conditions":[1.3333334E-1,-2.6641188E-2,8.9108914E-2,1.0817776E-1,5.048217E-2,-7.2092586E-3,3.5055026E-2,9.154573E-3,-1.3600125E-2],"split_indices":[4,0,3,2,2,0,0,0,0],"split_type":[0,0,0,0,0,0,0,0,0],"sum_hessian":[5.58785E1,2.5421555E0,5.3336346E1,1.1855324E1,4.148102E1,6.1127234E0,5.7426E0,2.102414E1,2.0456882E1],"tree_param":{"num_deleted":"0","num_feature":"38","num_nodes":"9","size_leaf_vector":"1"}},{"base_weights":[9.934617E-5,-2.6074616E-2,3.360064E-2,1.4634664E-3,3.1179646E-2,4.181031E-3,-1.6901469E-2],"categories":[],"categories_nodes":[],"categories_segments":[],"categories_sizes":[],"default_left":[0,0,0,0,0,0,0],"id":77,"left_children":[1,-1,3,5,-1,-1,-1],"loss_changes":[1.0106289E0,0E0,1.0294645E0,1.4936439E0,0E0,0E0,0E0],"parents":[2147483647,0,0,2,2,3,3],"right_children":[2,-1,4,6,-1,-1,-1],"split_conditions":[1.3333334E-1,-2.6074616E-2,1E0,7.5416446E-2,3.1179646E-2,4.181031E-3,-1.6901469E-2],"split_indices":[4,0,26,1,0,0,0],"split_type":[0,0,0,0,0,0,0],"sum_hessian":[5.5833393E1,2.4905736E0,5.334282E1,5.1538002E1,1.8048201E0,4.210282E1,9.43518E0],"tree_param":{"num_deleted":"0","num_feature":"38","num_nodes":"7","size_leaf_vector":"1"}},{"base_weights":[-4.7941736E-5,-1.07327394E-1,1.6042785E-1,8.7625735E-2,-3.3457252E-1,4.6571496E-1,-2.0388685E-1,-5.389721E-3,4.6354502E-2,-3.4273475E-2,2.02364E-3,8.282487E-3,4.2174924E-2,-2.4053443E-2,1.4860118E-2],"categories":[],"categories_nodes":[],"categories_segments":[],"categories_sizes":[],"default_left":[0,0,0,0,0,0,0,0,0,0,0,0,0,0,0],"id":78,"left_children":[1,3,5,7,9,11,13,-1,-1,-1,-1,-1,-1,-1,-1],"loss_changes":[9.951119E-1,1.5640712E0,2.6707513E0,3.2888253E0,2.160246E0,1.3231769E0,1.706132E0,0E0,0E0,0E0,0E0,0E0,0E0,0E0,0E0],"parents":[2147483647,0,0,1,1,2,2,3,3,4,4,5,5,6,6],"right_children":[2,4,6,8,10,12,14,-1,-1,-1,-1,-1,-1,-1,-1],"split_conditions":[4.9493544E-2,4.1110814E-2,7.58965E-2,3.634612E-2,3.509193E-2,1.3861386E-1,3.0001417E-1,-5.389721E-3,4.6354502E-2,-3.4273475E-2,2.02364E-3,8.282487E-3,4.2174924E-2,-2.4053443E-2,1.4860118E-2],"split_indices":[1,2,1,2,1,3,2,0,0,0,0,0,0,0,0],"split_type":[0,0,0,0,0,0,0,0,0,0,0,0,0,0,0],"sum_hessian":[5.5802246E1,3.3642883E1,2.2159365E1,1.8438732E1,1.520415E1,1.1904959E1,1.0254406E1,1.56639E1,2.7748313E0,7.4273415E0,7.7768087E0,7.4366593E0,4.4682994E0,6.628014E0,3.626392E0],"tree_param":{"num_deleted":"0","num_feature":"38","num_nodes":"15","size_leaf_vector":"1"}},{"base_weights":[7.787391E-4,-1.348791E-1,1.3145381E-1,-6.058899E-2,-4.1084014E-2,1.7576675E-1,-2.6179284E-2,-2.306096E-2,1.1335396E-3,-6.291728E-4,2.0804008E-2],"categories":[],"categories_nodes":[],"categories_segments":[],"categories_sizes":[],"default_left":[0,0,0,0,0,0,0,0,0,0,0],"id":79,"left_children":[1,3,5,7,-1,9,-1,-1,-1,-1,-1],"loss_changes":[1.0222064E0,1.3939068E0,9.444897E-1,8.9816594E-1,0E0,1.2841878E0,0E0,0E0,0E0,0E0,0E0],"parents":[2147483647,0,0,1,1,2,2,3,3,5,5],"right_children":[2,4,6,8,-1,10,-1,-1,-1,-1,-1],"split_conditions":[1E0,3.1666666E-1,3.4158415E-1,1.5E-1,-4.1084014E-2,1.3861386E-1,-2.6179284E-2,-2.306096E-2,1.1335396E-3,-6.291728E-4,2.0804008E-2],"split_indices":[8,4,3,4,0,3,0,0,0,0,0],"split_type":[0,0,0,0,0,0,0,0,0,0,0],"sum_hessian":[5.566331E1,2.7295174E1,2.8368137E1,2.561289E1,1.6822834E0,2.7255962E1,1.1121756E0,3.6259568E0,2.1986935E1,1.581124E1,1.1444721E1],"tree_param":{"num_deleted":"0","num_feature":"38","num_nodes":"11","size_leaf_vector":"1"}},{"base_weights":[-5.04138E-4,-1.308392E-1,1.24776475E-1,-5.852772E-2,-4.0390212E-2,2.1340998E-1,-2.7840704E-1,-1.329722E-2,7.4667814E-3,1.7343113E-3,2.9838279E-2,5.817438E-3,-4.90751E-2],"categories":[],"categories_nodes":[],"categories_segments":[],"categories_sizes":[],"default_left":[0,0,0,0,0,0,0,0,0,0,0,0,0],"id":80,"left_children":[1,3,5,7,-1,9,11,-1,-1,-1,-1,-1,-1],"loss_changes":[9.3968755E-1,1.3333569E0,1.1080954E0,1.1848266E0,0E0,1.6663457E0,1.7024741E0,0E0,0E0,0E0,0E0,0E0,0E0],"parents":[2147483647,0,0,1,1,2,2,3,3,5,5,6,6],"right_children":[2,4,6,8,-1,10,12,-1,-1,-1,-1,-1,-1],"split_conditions":[1E0,3.1666666E-1,9.749892E-2,3.6532093E-2,-4.0390212E-2,4.1666666E-1,1E0,-1.329722E-2,7.4667814E-3,1.7343113E-3,2.9838279E-2,5.817438E-3,-4.90751E-2],"split_indices":[8,4,1,1,0,4,23,0,0,0,0,0,0],"split_type":[0,0,0,0,0,0,0,0,0,0,0,0,0],"sum_hessian":[5.554924E1,2.7203669E1,2.8345572E1,2.555989E1,1.6437789E0,2.3623096E1,4.722475E0,1.26538315E1,1.2906059E1,1.6855429E1,6.767668E0,3.5588577E0,1.1636174E0],"tree_param":{"num_deleted":"0","num_feature":"38","num_nodes":"13","size_leaf_vector":"1"}},{"base_weights":[-1.5229994E-3,-3.0467432E-2,2.7629456E-2,3.0386291E-2,-3.513966E-1,-5.70131E-3,1.8322436E-2,1.5740642E-2,-3.830114E-2],"categories":[],"categories_nodes":[],"categories_segments":[],"categories_sizes":[],"default_left":[0,0,0,0,0,0,0,0,0],"id":81,"left_children":[1,3,-1,5,7,-1,-1,-1,-1],"loss_changes":[9.2075056E-1,1.0752261E0,0E0,2.3102067E0,2.6631172E0,0E0,0E0,0E0,0E0],"parents":[2147483647,0,0,1,1,3,3,4,4],"right_children":[2,4,-1,6,8,-1,-1,-1,-1],"split_conditions":[1E0,8.6457685E-2,2.7629456E-2,4.9493544E-2,5E-1,-5.70131E-3,1.8322436E-2,1.5740642E-2,-3.830114E-2],"split_indices":[26,1,0,1,0,0,0,0,0],"split_type":[0,0,0,0,0,0,0,0,0],"sum_hessian":[5.535918E1,5.350911E1,1.8500699E0,4.574112E1,7.76799E0,3.2455196E1,1.3285923E1,3.072276E0,4.695714E0],"tree_param":{"num_deleted":"0","num_feature":"38","num_nodes":"9","size_leaf_vector":"1"}},{"base_weights":[-1.1395696E-3,4.222958E-1,-4.003457E-2,3.086519E-2,-5.1801745E-3,-7.7370435E-2,2.6861755E-2,-7.788194E-4,-2.2063708E-2],"categories":[],"categories_nodes":[],"categories_segments":[],"categories_sizes":[],"default_left":[0,0,0,0,0,0,0,0,0],"id":82,"left_children":[1,3,5,-1,-1,7,-1,-1,-1],"loss_changes":[9.4347006E-1,5.582252E-1,1.1717919E0,0E0,0E0,1.1203644E0,0E0,0E0,0E0],"parents":[2147483647,0,0,1,1,2,2,5,5],"right_children":[2,4,6,-1,-1,8,-1,-1,-1],"split_conditions":[1E0,9.557871E-2,1E0,3.086519E-2,-5.1801745E-3,8.6457685E-2,2.6861755E-2,-7.788194E-4,-2.2063708E-2],"split_indices":[15,1,37,0,0,1,0,0,0],"split_type":[0,0,0,0,0,0,0,0,0],"sum_hessian":[5.52593E1,3.8195841E0,5.1439716E1,2.6595821E0,1.160002E0,4.912824E1,2.3114777E0,4.2888245E1,6.239996E0],"tree_param":{"num_deleted":"0","num_feature":"38","num_nodes":"9","size_leaf_vector":"1"}},{"base_weights":[-5.477233E-4,-2.5199378E-2,3.1285357E-2,-1.1609113E-2,4.6781203E-1,1.4870115E-2,-5.463397E-3,4.225182E-2,4.0509175E-3],"categories":[],"categories_nodes":[],"categories_segments":[],"categories_sizes":[],"default_left":[0,0,0,0,0,0,0,0,0],"id":83,"left_children":[1,-1,3,5,7,-1,-1,-1,-1],"loss_changes":[9.16101E-1,0E0,1.0124375E0,1.5396897E0,6.371447E-1,0E0,0E0,0E0,0E0],"parents":[2147483647,0,0,2,2,3,3,4,4],"right_children":[2,-1,4,6,8,-1,-1,-1,-1],"split_conditions":[1.3333334E-1,-2.5199378E-2,1E0,8.9108914E-2,1E0,1.4870115E-2,-5.463397E-3,4.225182E-2,4.0509175E-3],"split_indices":[4,0,25,3,9,0,0,0,0],"split_type":[0,0,0,0,0,0,0,0,0],"sum_hessian":[5.5179413E1,2.3994792E0,5.2779934E1,4.8943954E1,3.8359797E0,1.1262359E1,3.7681595E1,1.3422327E0,2.493747E0],"tree_param":{"num_deleted":"0","num_feature":"38","num_nodes":"9","size_leaf_vector":"1"}},{"base_weights":[1.5029675E-5,-2.4656296E-2,3.0788317E-2,-1.0853168E-2,4.5645517E-1,1.4151982E-2,-5.2048373E-3,4.1492444E-2,3.9064204E-3],"categories":[],"categories_nodes":[],"categories_segments":[],"categories_sizes":[],"default_left":[0,0,0,0,0,0,0,0,0],"id":84,"left_children":[1,-1,3,5,7,-1,-1,-1,-1],"loss_changes":[8.662749E-1,0E0,9.573421E-1,1.3974264E0,6.1480093E-1,0E0,0E0,0E0,0E0],"parents":[2147483647,0,0,2,2,3,3,4,4],"right_children":[2,-1,4,6,8,-1,-1,-1,-1],"split_conditions":[1.3333334E-1,-2.4656296E-2,1E0,8.9108914E-2,1E0,1.4151982E-2,-5.2048373E-3,4.1492444E-2,3.9064204E-3],"split_indices":[4,0,25,3,9,0,0,0,0],"split_type":[0,0,0,0,0,0,0,0,0],"sum_hessian":[5.508307E1,2.3529317E0,5.2730137E1,4.891906E1,3.8110757E0,1.1292125E1,3.7626934E1,1.317391E0,2.4936845E0],"tree_param":{"num_deleted":"0","num_feature":"38","num_nodes":"9","size_leaf_vector":"1"}},{"base_weights":[5.3780543E-4,5.005923E-1,-3.2358356E-2,3.0552845E-3,3.929041E-2,-5.4837245E-1,5.4442868E-2,1.3589832E-2,-3.56604E-2,2.0719638E-2,-3.7140665E-3],"categories":[],"categories_nodes":[],"categories_segments":[],"categories_sizes":[],"default_left":[0,0,0,0,0,0,0,0,0,0,0],"id":85,"left_children":[1,3,5,-1,-1,7,9,-1,-1,-1,-1],"loss_changes":[9.372117E-1,3.9278585E-1,2.424922E0,0E0,0E0,1.2469983E0,2.1937804E0,0E0,0E0,0E0,0E0],"parents":[2147483647,0,0,1,1,2,2,5,5,6,6],"right_children":[2,4,6,-1,-1,8,10,-1,-1,-1,-1],"split_conditions":[8.318166E-3,6.5554823E-3,2.6177105E-2,3.0552845E-3,3.929041E-2,1.4449619E-2,4.3028615E-2,1.3589832E-2,-3.56604E-2,2.0719638E-2,-3.7140665E-3],"split_indices":[2,2,2,0,0,1,2,0,0,0,0],"split_type":[0,0,0,0,0,0,0,0,0,0,0],"sum_hessian":[5.4989094E1,2.5166192E0,5.2472473E1,1.4683286E0,1.0482907E0,6.7899795E0,4.5682495E1,1.0276794E0,5.7623E0,1.1448887E1,3.423361E1],"tree_param":{"num_deleted":"0","num_feature":"38","num_nodes":"11","size_leaf_vector":"1"}},{"base_weights":[1.1288009E-3,-5.8476064E-2,2.7562806E-1,-6.7629176E-3,-4.262908E-2,5.817182E-1,-2.4669923E-2,-6.2614004E-3,1.5636755E-2,4.007262E-2,-1.7028254E-2],"categories":[],"categories_nodes":[],"categories_segments":[],"categories_sizes":[],"default_left":[0,0,0,0,0,0,0,0,0,0,0],"id":86,"left_children":[1,3,5,7,-1,9,-1,-1,-1,-1,-1],"loss_changes":[9.3143964E-1,1.9156234E0,2.6775343E0,1.7399457E0,0E0,1.83809E0,0E0,0E0,0E0,0E0,0E0],"parents":[2147483647,0,0,1,1,2,2,3,3,5,5],"right_children":[2,4,6,8,-1,10,-1,-1,-1,-1,-1],"split_conditions":[1.509431E-1,1.3278346E-1,3.5E-1,4.9493544E-2,-4.262908E-2,2.4151506E-1,-2.4669923E-2,-6.2614004E-3,1.5636755E-2,4.007262E-2,-1.7028254E-2],"split_indices":[2,2,4,1,0,1,0,0,0,0,0],"split_type":[0,0,0,0,0,0,0,0,0,0,0],"sum_hessian":[5.4943676E1,4.5788185E1,9.155491E0,4.3935562E1,1.8526225E0,6.723107E0,2.4323845E0,3.2494965E1,1.1440599E1,5.5353265E0,1.1877804E0],"tree_param":{"num_deleted":"0","num_feature":"38","num_nodes":"11","size_leaf_vector":"1"}},{"base_weights":[4.426293E-4,4.9170104E-1,-3.1985868E-2,3.152869E-3,3.8361415E-2,-5.270197E-1,5.012411E-2,5.536646E-3,-4.638154E-2,1.9793322E-2,-3.7104895E-3],"categories":[],"categories_nodes":[],"categories_segments":[],"categories_sizes":[],"default_left":[0,0,0,0,0,0,0,0,0,0,0],"id":87,"left_children":[1,3,5,-1,-1,7,9,-1,-1,-1,-1],"loss_changes":[9.0538645E-1,3.6725032E-1,2.1939743E0,0E0,0E0,2.0632348E0,2.0348547E0,0E0,0E0,0E0,0E0],"parents":[2147483647,0,0,1,1,2,2,5,5,6,6],"right_children":[2,4,6,-1,-1,8,10,-1,-1,-1,-1],"split_conditions":[8.318166E-3,6.5554823E-3,2.6177105E-2,3.152869E-3,3.8361415E-2,2E-1,4.3028615E-2,5.536646E-3,-4.638154E-2,1.9793322E-2,-3.7104895E-3],"split_indices":[2,2,2,0,0,4,2,0,0,0,0],"split_type":[0,0,0,0,0,0,0,0,0,0,0],"sum_hessian":[5.4845325E1,2.519213E0,5.232611E1,1.4665425E0,1.0526705E0,6.673529E0,4.565258E1,2.8538823E0,3.8196466E0,1.149735E1,3.415523E1],"tree_param":{"num_deleted":"0","num_feature":"38","num_nodes":"11","size_leaf_vector":"1"}},{"base_weights":[6.7627605E-4,-5.6857422E-2,2.6514518E-1,-6.85353E-3,-4.140894E-2,5.593163E-1,-2.3644928E-2,-6.0047987E-3,1.487714E-2,3.8594093E-2,-1.6433781E-2],"categories":[],"categories_nodes":[],"categories_segments":[],"categories_sizes":[],"default_left":[0,0,0,0,0,0,0,0,0,0,0],"id":88,"left_children":[1,3,5,7,-1,9,-1,-1,-1,-1,-1],"loss_changes":[8.645898E-1,1.7946773E0,2.468639E0,1.5815713E0,0E0,1.7103331E0,0E0,0E0,0E0,0E0,0E0],"parents":[2147483647,0,0,1,1,2,2,3,3,5,5],"right_children":[2,4,6,8,-1,10,-1,-1,-1,-1,-1],"split_conditions":[1.509431E-1,1.3278346E-1,3.5E-1,4.9493544E-2,-4.140894E-2,2.4151506E-1,-2.3644928E-2,-6.0047987E-3,1.487714E-2,3.8594093E-2,-1.6433781E-2],"split_indices":[2,2,4,1,0,1,0,0,0,0,0],"split_type":[0,0,0,0,0,0,0,0,0,0,0],"sum_hessian":[5.4830795E1,4.5678673E1,9.1521225E0,4.384513E1,1.8335447E0,6.717006E0,2.4351158E0,3.2397846E1,1.1447283E1,5.5251613E0,1.1918447E0],"tree_param":{"num_deleted":"0","num_feature":"38","num_nodes":"11","size_leaf_vector":"1"}},{"base_weights":[2.722761E-5,-1.2764606E-1,1.2203145E-1,-5.3843886E-1,-1.1435376E-2,1.6749175E-1,-2.7248804E-2,2.1207856E-4,-4.4238333E-2,3.4837674E-3,-3.7525944E-2,2.6524484E-2,1.1167397E-3],"categories":[],"categories_nodes":[],"categories_segments":[],"categories_sizes":[],"default_left":[0,0,0,0,0,0,0,0,0,0,0,0,0],"id":89,"left_children":[1,3,5,7,9,11,-1,-1,-1,-1,-1,-1,-1],"loss_changes":[8.8368315E-1,1.3172324E0,9.709163E-1,1.1485761E0,1.4089292E0,1.4594837E0,0E0,0E0,0E0,0E0,0E0,0E0,0E0],"parents":[2147483647,0,0,1,1,2,2,3,3,4,4,5,5],"right_children":[2,4,6,8,10,12,-1,-1,-1,-1,-1,-1,-1],"split_conditions":[1E0,4.25E-1,3.4158415E-1,8.9108914E-2,3.1666666E-1,3.2829016E-2,-2.7248804E-2,2.1207856E-4,-4.4238333E-2,3.4837674E-3,-3.7525944E-2,2.6524484E-2,1.1167397E-3],"split_indices":[8,0,3,3,4,2,0,0,0,0,0,0,0],"split_type":[0,0,0,0,0,0,0,0,0,0,0,0,0],"sum_hessian":[5.4731155E1,2.6721632E1,2.8009525E1,5.091258E0,2.1630375E1,2.6923433E1,1.0860921E0,2.3681784E0,2.7230794E0,2.0307459E1,1.3229151E0,6.932514E0,1.999092E1],"tree_param":{"num_deleted":"0","num_feature":"38","num_nodes":"13","size_leaf_vector":"1"}},{"base_weights":[-1.4149521E-3,4.0883356E-1,-3.8762912E-2,2.9976046E-2,-4.937705E-3,-3.74211E-2,-3.2829796E-3,-1.982206E-3,2.6561374E-2],"categories":[],"categories_nodes":[],"categories_segments":[],"categories_sizes":[],"default_left":[0,0,0,0,0,0,0,0,0],"id":90,"left_children":[1,3,5,-1,-1,-1,7,-1,-1],"loss_changes":[8.6858046E-1,5.170695E-1,1.3049166E0,0E0,0E0,0E0,1.0016916E0,0E0,0E0],"parents":[2147483647,0,0,1,1,2,2,6,6],"right_children":[2,4,6,-1,-1,-1,8,-1,-1],"split_conditions":[1E0,9.557871E-2,2.5E-1,2.9976046E-2,-4.937705E-3,-3.74211E-2,1E0,-1.982206E-3,2.6561374E-2],"split_indices":[15,1,0,0,0,0,37,0,0],"split_type":[0,0,0,0,0,0,0,0,0],"sum_hessian":[5.4654346E1,3.7304647E0,5.092388E1,2.5800786E0,1.150386E0,1.4679595E0,4.945592E1,4.7172733E1,2.2831883E0],"tree_param":{"num_deleted":"0","num_feature":"38","num_nodes":"9","size_leaf_vector":"1"}},{"base_weights":[-1.1270492E-3,4.8036695E-1,-3.2866158E-2,3.1638138E-3,3.7282158E-2,-5.144496E-1,4.6238415E-2,1.3457606E-2,-3.393009E-2,1.886073E-2,-3.6706317E-3],"categories":[],"categories_nodes":[],"categories_segments":[],"categories_sizes":[],"default_left":[0,0,0,0,0,0,0,0,0,0,0],"id":91,"left_children":[1,3,5,-1,-1,7,9,-1,-1,-1,-1],"loss_changes":[8.6469126E-1,3.3998948E-1,2.0447245E0,0E0,0E0,1.1559792E0,1.8684711E0,0E0,0E0,0E0,0E0],"parents":[2147483647,0,0,1,1,2,2,5,5,6,6],"right_children":[2,4,6,-1,-1,8,10,-1,-1,-1,-1],"split_conditions":[8.318166E-3,6.5554823E-3,2.6177105E-2,3.1638138E-3,3.7282158E-2,1.4449619E-2,4.3028615E-2,1.3457606E-2,-3.393009E-2,1.886073E-2,-3.6706317E-3],"split_indices":[2,2,2,0,0,1,2,0,0,0,0],"split_type":[0,0,0,0,0,0,0,0,0,0,0],"sum_hessian":[5.454855E1,2.4992435E0,5.2049305E1,1.4530926E0,1.0461508E0,6.56692E0,4.5482388E1,1.0266105E0,5.5403094E0,1.1504969E1,3.3977417E1],"tree_param":{"num_deleted":"0","num_feature":"38","num_nodes":"11","size_leaf_vector":"1"}},{"base_weights":[-4.805676E-4,-2.4211904E-2,2.9616106E-2,-1.0300968E-2,4.3767518E-1,1.3330224E-2,-4.9208556E-3,4.661968E-2,1.8871535E-3],"categories":[],"categories_nodes":[],"categories_segments":[],"categories_sizes":[],"default_left":[0,0,0,0,0,0,0,0,0],"id":92,"left_children":[1,-1,3,5,7,-1,-1,-1,-1],"loss_changes":[8.224188E-1,0E0,8.709499E-1,1.2323362E0,9.071484E-1,0E0,0E0,0E0,0E0],"parents":[2147483647,0,0,2,2,3,3,4,4],"right_children":[2,-1,4,6,8,-1,-1,-1,-1],"split_conditions":[1.3333334E-1,-2.4211904E-2,1E0,8.9108914E-2,5.7376247E-2,1.3330224E-2,-4.9208556E-3,4.661968E-2,1.8871535E-3],"split_indices":[4,0,25,3,2,0,0,0,0],"split_type":[0,0,0,0,0,0,0,0,0],"sum_hessian":[5.450177E1,2.3083992E0,5.219337E1,4.843056E1,3.7628086E0,1.12021475E1,3.7228413E1,1.0869122E0,2.6758964E0],"tree_param":{"num_deleted":"0","num_feature":"38","num_nodes":"9","size_leaf_vector":"1"}},{"base_weights":[1.2194628E-4,4.7013465E-1,-3.0971745E-2,3.144328E-3,3.6384616E-2,-4.1395128E-1,6.0120624E-2,-3.3063278E-2,1.7505316E-3,2.7510399E-2,-3.3614864E-3],"categories":[],